{"learner":{"attributes":{},"feature_names":["Volume","SMA_5","EMA_5","SMA_10","EMA_10","SMA_15","EMA_15","SMA_20","EMA_20","SMA_25","EMA_25","SMA_30","EMA_30","SMA_35","EMA_35","SMA_40","EMA_40","SMA_45","EMA_45","ATR","BBANDS_L","BBANDS_M","BBANDS_U","RSI","MACD"],"feature_types":[],"gradient_booster":{"model":{"gbtree_model_param":{"num_parallel_tree":"1","num_trees":"50"},"iteration_indptr":[0,1,2,3,4,5,6,7,8,9,10,11,12,13,14,15,16,17,18,19,20,21,22,23,24,25,26,27,28,29,30,31,32,33,34,35,36,37,38,39,40,41,42,43,44,45,46,47,48,49,50],"tree_info":[0,0,0,0,0,0,0,0,0,0,0,0,0,0,0,0,0,0,0,0,0,0,0,0,0,0,0,0,0,0,0,0,0,0,0,0,0,0,0,0,0,0,0,0,0,0,0,0,0,0],"trees":[{"base_weights":[-1.1694407E-2,-3.320689E-1,2.3028693E-1,-9.508725E-1,-2.5981393E-1,-4.3921998E-1,3.2003543E-1,-2.0718274E-3,-1.0962058E0,-1.9383924E-1,-9.103026E-1,-2.9857248E-1,-1.1038782E-2,-4.3717393E-1,4.272928E-1,-8.474633E-3,-1.2563593E-2,-6.0938546E-3,-6.9858617E-4,-1.167919E-2,-5.2651274E-3,-4.6267915E-3,9.965918E-3,-1.6205132E-3,-1.0870485E-2,6.3295215E-3,1.4154898E-3],"categories":[],"categories_nodes":[],"categories_segments":[],"categories_sizes":[],"default_left":[0,0,0,0,0,0,0,0,0,0,0,0,0,0,0,0,0,0,0,0,0,0,0,0,0,0,0],"id":0,"left_children":[1,3,5,7,9,11,13,-1,15,17,19,21,-1,23,25,-1,-1,-1,-1,-1,-1,-1,-1,-1,-1,-1,-1],"loss_changes":[7.853157E1,1.9241554E1,3.481864E1,4.6579704E0,1.663262E1,6.0871983E0,4.1565464E1,0E0,4.3219376E-1,1.8343735E1,2.9242954E0,1.2793819E1,0E0,1.1214547E1,2.6165764E1,0E0,0E0,0E0,0E0,0E0,0E0,0E0,0E0,0E0,0E0,0E0,0E0],"parents":[2147483647,0,0,1,1,2,2,3,3,4,4,5,5,6,6,8,8,9,9,10,10,11,11,13,13,14,14],"right_children":[2,4,6,8,10,12,14,-1,16,18,20,22,-1,24,26,-1,-1,-1,-1,-1,-1,-1,-1,-1,-1,-1,-1],"split_conditions":[-2.8970677E-1,-1.0531901E0,-9.382376E-1,-1.3478487E0,2.1264677E0,-1.4794898E-1,-1.0312229E0,-2.0718274E-3,-1.2277541E0,-9.173047E-1,-2.5579107E-1,-1.9347315E-1,-1.1038782E-2,7.8214574E-1,3.3636284E-3,-8.474633E-3,-1.2563593E-2,-6.0938546E-3,-6.9858617E-4,-1.167919E-2,-5.2651274E-3,-4.6267915E-3,9.965918E-3,-1.6205132E-3,-1.0870485E-2,6.3295215E-3,1.4154898E-3],"split_indices":[23,12,0,4,0,22,10,0,15,0,12,1,0,23,0,0,0,0,0,0,0,0,0,0,0,0,0],"split_type":[0,0,0,0,0,0,0,0,0,0,0,0,0,0,0,0,0,0,0,0,0,0,0,0,0,0,0],"sum_hessian":[1.011002E3,4.348733E2,5.761287E2,4.41976E1,3.906757E2,6.7641556E1,5.0848715E2,7.6217375E0,3.6575867E1,3.5587924E2,3.479645E1,5.7024E1,1.0617563E1,6.2708115E1,4.4577902E2,1.679002E1,1.9785845E1,8.087961E1,2.7499963E2,1.9598177E1,1.5198274E1,5.1181675E1,5.8423233E0,4.493455E1,1.7773561E1,2.5850748E2,1.8727156E2],"tree_param":{"num_deleted":"0","num_feature":"25","num_nodes":"27","size_leaf_vector":"1"}},{"base_weights":[-4.8151705E-3,3.9718226E-1,-2.7807418E-1,-2.1680453E-1,5.1173705E-1,-4.2195788E-1,2.2597244E-1,2.745672E-1,-5.973285E-1,7.401812E-2,7.0636946E-1,-2.472415E-1,-6.195771E-1,7.614903E-1,-1.13534324E-1,9.694828E-3,-3.145813E-3,-4.131022E-4,-8.200297E-3,3.2128254E-3,-2.8918802E-3,9.196923E-3,3.5755944E-3,-5.0378037E-3,7.14412E-5,-5.62395E-3,-1.2782512E-2,4.263636E-3,1.2883429E-2,-3.3236875E-3,9.004499E-3],"categories":[],"categories_nodes":[],"categories_segments":[],"categories_sizes":[],"default_left":[0,0,0,0,0,0,0,0,0,0,0,0,0,0,0,0,0,0,0,0,0,0,0,0,0,0,0,0,0,0,0],"id":1,"left_children":[1,3,5,7,9,11,13,15,17,19,21,23,25,27,29,-1,-1,-1,-1,-1,-1,-1,-1,-1,-1,-1,-1,-1,-1,-1,-1],"loss_changes":[1.12191536E2,2.918097E1,4.419061E1,1.2446688E1,2.9647919E1,1.6189926E1,2.4752804E1,1.2322955E1,4.589261E0,9.829754E0,1.7618553E1,1.6507229E1,7.621788E0,8.767738E0,1.8916351E1,0E0,0E0,0E0,0E0,0E0,0E0,0E0,0E0,0E0,0E0,0E0,0E0,0E0,0E0,0E0,0E0],"parents":[2147483647,0,0,1,1,2,2,3,3,4,4,5,5,6,6,7,7,8,8,9,9,10,10,11,11,12,12,13,13,14,14],"right_children":[2,4,6,8,10,12,14,16,18,20,22,24,26,28,30,-1,-1,-1,-1,-1,-1,-1,-1,-1,-1,-1,-1,-1,-1,-1,-1],"split_conditions":[-3.571377E-1,-7.881237E-1,3.225387E-1,-7.360697E-1,-1.2110983E-1,4.007512E-1,2.0013719E0,2.7538565E-1,-9.834927E-1,-5.8027774E-1,-7.751768E-2,-4.7785318E-1,3.4933782E0,3.815591E-2,4.6141964E-1,9.694828E-3,-3.145813E-3,-4.131022E-4,-8.200297E-3,3.2128254E-3,-2.8918802E-3,9.196923E-3,3.5755944E-3,-5.0378037E-3,7.14412E-5,-5.62395E-3,-1.2782512E-2,4.263636E-3,1.2883429E-2,-3.3236875E-3,9.004499E-3],"split_indices":[19,0,5,20,23,19,15,24,19,19,0,0,19,23,23,0,0,0,0,0,0,0,0,0,0,0,0,0,0,0,0],"split_type":[0,0,0,0,0,0,0,0,0,0,0,0,0,0,0,0,0,0,0,0,0,0,0,0,0,0,0,0,0,0,0],"sum_hessian":[1.0193158E3,4.123075E2,6.070083E2,6.469026E1,3.4761725E2,4.7233868E2,1.346696E2,2.8354483E1,3.6335777E1,1.074185E2,2.4019873E2,2.5189122E2,2.2044748E2,5.1769123E1,8.2900475E1,1.271328E1,1.5641203E1,1.073048E1,2.5605299E1,6.397849E1,4.3440014E1,1.4803055E2,9.216818E1,1.2492669E2,1.2696453E2,2.0454405E2,1.5903428E1,3.274779E1,1.9021332E1,6.8737915E1,1.4162556E1],"tree_param":{"num_deleted":"0","num_feature":"25","num_nodes":"31","size_leaf_vector":"1"}},{"base_weights":[1.8284954E-2,3.946535E-1,-2.4893413E-1,-1.2672116E-1,4.9520662E-1,-4.5756623E-1,1.2837845E-1,7.7904254E-2,-1.1563498E0,2.1524513E-1,7.686572E-1,-4.2417848E-1,-1.1571217E0,-1.6092438E-1,3.142774E-1,7.2157416E-3,-1.4183638E-3,-1.4147361E-2,-7.020649E-3,3.993713E-3,-1.0553068E-3,9.996966E-3,4.7437563E-3,-6.923052E-3,-3.4967049E-3,-2.8853067E-3,-1.5182559E-2,7.5451587E-3,-2.4787928E-3,3.8897826E-3,-4.6600145E-3],"categories":[],"categories_nodes":[],"categories_segments":[],"categories_sizes":[],"default_left":[0,0,0,0,0,0,0,0,0,0,0,0,0,0,0,0,0,0,0,0,0,0,0,0,0,0,0,0,0,0,0],"id":2,"left_children":[1,3,5,7,9,11,13,15,17,19,21,23,25,27,29,-1,-1,-1,-1,-1,-1,-1,-1,-1,-1,-1,-1,-1,-1,-1,-1],"loss_changes":[1.0132222E2,2.1991295E1,4.644004E1,1.4506044E1,2.6694397E1,8.375931E0,1.1375313E1,8.308194E0,3.4571743E-1,1.0363563E1,1.1567047E1,7.0279922E0,4.804861E0,6.7969227E0,7.6732073E0,0E0,0E0,0E0,0E0,0E0,0E0,0E0,0E0,0E0,0E0,0E0,0E0,0E0,0E0,0E0,0E0],"parents":[2147483647,0,0,1,1,2,2,3,3,4,4,5,5,6,6,7,7,8,8,9,9,10,10,11,11,12,12,13,13,14,14],"right_children":[2,4,6,8,10,12,14,16,18,20,22,24,26,28,30,-1,-1,-1,-1,-1,-1,-1,-1,-1,-1,-1,-1,-1,-1,-1,-1],"split_conditions":[-3.571377E-1,-7.790641E-1,-4.318573E-2,-4.8301804E-1,3.7600103E-1,3.4933782E0,-6.06082E-1,-9.263381E-1,-3.3333275E-1,-5.92022E-1,-1.3133182E-1,-1.1125926E0,-1.1152843E0,-1.3087986E-2,2.3534458E0,7.2157416E-3,-1.4183638E-3,-1.4147361E-2,-7.020649E-3,3.993713E-3,-1.0553068E-3,9.996966E-3,4.7437563E-3,-6.923052E-3,-3.4967049E-3,-2.8853067E-3,-1.5182559E-2,7.5451587E-3,-2.4787928E-3,3.8897826E-3,-4.6600145E-3],"split_indices":[19,0,3,5,23,19,23,19,1,19,0,1,20,2,3,0,0,0,0,0,0,0,0,0,0,0,0,0,0,0,0],"split_type":[0,0,0,0,0,0,0,0,0,0,0,0,0,0,0,0,0,0,0,0,0,0,0,0,0,0,0,0,0,0,0],"sum_hessian":[1.0054741E3,4.172772E2,5.881969E2,6.74232E1,3.4985397E2,3.7862592E2,2.09571E2,5.7016285E1,1.0406914E1,1.7375201E2,1.7610196E2,3.6291156E2,1.5714351E1,8.2036736E1,1.27534256E2,1.3929597E1,4.308669E1,5.2861004E0,5.120814E0,1.1023298E2,6.351904E1,9.7308395E1,7.8793564E1,7.7114235E1,2.8579733E2,5.143145E0,1.0571205E1,6.4504876E0,7.558624E1,1.1684907E2,1.0685189E1],"tree_param":{"num_deleted":"0","num_feature":"25","num_nodes":"31","size_leaf_vector":"1"}},{"base_weights":[-1.4983398E-2,-2.9285434E-1,2.6874274E-1,-8.201416E-1,-1.8946655E-1,-4.2480603E-1,4.0435532E-1,4.7462643E-3,-9.374292E-1,-5.553736E-1,-3.531627E-2,-3.1369987E-1,-1.4985711E-2,-8.05567E-2,5.047639E-1,1.5313351E-3,-1.0416232E-2,-6.9338703E-3,-1.639094E-3,3.8641202E-4,-6.487896E-3,-4.704256E-3,3.2134857E-3,1.483749E-3,-9.406865E-3,7.5375717E-3,2.1931343E-3],"categories":[],"categories_nodes":[],"categories_segments":[],"categories_sizes":[],"default_left":[0,0,0,0,0,0,0,0,0,0,0,0,0,0,0,0,0,0,0,0,0,0,0,0,0,0,0],"id":3,"left_children":[1,3,5,7,9,11,13,-1,15,17,19,21,-1,23,25,-1,-1,-1,-1,-1,-1,-1,-1,-1,-1,-1,-1],"loss_changes":[8.021589E1,2.786584E1,4.7523632E1,1.3195412E1,2.4293442E1,9.411629E0,2.0569283E1,0E0,8.945869E0,6.785568E0,1.3833628E1,7.7479115E0,0E0,1.4551439E1,2.467086E1,0E0,0E0,0E0,0E0,0E0,0E0,0E0,0E0,0E0,0E0,0E0,0E0],"parents":[2147483647,0,0,1,1,2,2,3,3,4,4,5,5,6,6,8,8,9,9,10,10,11,11,13,13,14,14],"right_children":[2,4,6,8,10,12,14,-1,16,18,20,22,-1,24,26,-1,-1,-1,-1,-1,-1,-1,-1,-1,-1,-1,-1],"split_conditions":[-6.5912776E-2,-9.7673285E-1,-8.5644674E-1,-7.7890337E-1,-1.0077889E0,-8.9052767E-1,-7.844819E-1,4.7462643E-3,-1.4652671E0,4.9392205E-2,1.3070934E0,-9.9141556E-1,-1.4985711E-2,9.3706155E-1,-4.3589324E-2,1.5313351E-3,-1.0416232E-2,-6.9338703E-3,-1.639094E-3,3.8641202E-4,-6.487896E-3,-4.704256E-3,3.2134857E-3,1.483749E-3,-9.406865E-3,7.5375717E-3,2.1931343E-3],"split_indices":[23,0,2,2,24,13,0,0,23,1,0,15,0,24,0,0,0,0,0,0,0,0,0,0,0,0,0],"split_type":[0,0,0,0,0,0,0,0,0,0,0,0,0,0,0,0,0,0,0,0,0,0,0,0,0,0,0],"sum_hessian":[1.0154631E3,5.1300885E2,5.0245422E2,8.296205E1,4.300468E2,8.182958E1,4.2062463E2,6.637895E0,7.632416E1,1.2669875E2,3.0334805E2,7.5327354E1,6.5022297E0,7.218978E1,3.4843484E2,6.6152244E0,6.970893E1,9.310328E1,3.3595474E1,2.7154846E2,3.1799597E1,6.062479E1,1.4702565E1,5.7668316E1,1.4521465E1,1.8522543E2,1.6320941E2],"tree_param":{"num_deleted":"0","num_feature":"25","num_nodes":"27","size_leaf_vector":"1"}},{"base_weights":[3.0301986E-2,-3.4035534E-1,2.4472481E-1,-4.2385894E-1,2.1453333E-1,-3.3973962E-1,3.8565356E-1,-6.558684E-1,-2.6790214E-1,-1.9539392E-1,6.6612583E-1,-1.9536076E-1,-7.57037E-1,-3.743095E-1,4.6444577E-1,-5.897743E-3,-1.2132559E-2,-6.8749073E-3,-1.16357E-3,5.727884E-3,-7.479981E-3,2.3458914E-3,1.4503336E-2,-4.409867E-3,3.8476547E-3,1.1369046E-3,-9.319092E-3,-1.2324053E-3,-1.0225761E-2,2.0055594E-3,6.5962565E-3],"categories":[],"categories_nodes":[],"categories_segments":[],"categories_sizes":[],"default_left":[0,0,0,0,0,0,0,0,0,0,0,0,0,0,0,0,0,0,0,0,0,0,0,0,0,0,0,0,0,0,0],"id":4,"left_children":[1,3,5,7,9,11,13,15,17,19,21,23,25,27,29,-1,-1,-1,-1,-1,-1,-1,-1,-1,-1,-1,-1,-1,-1,-1,-1],"loss_changes":[7.9767136E1,1.7135555E1,5.249579E1,1.1405685E1,9.160396E0,7.325572E0,3.0873878E1,3.9990501E0,1.2198556E1,1.1611065E1,7.591338E0,1.3493682E1,4.908041E0,7.8030496E0,2.3817108E1,0E0,0E0,0E0,0E0,0E0,0E0,0E0,0E0,0E0,0E0,0E0,0E0,0E0,0E0,0E0,0E0],"parents":[2147483647,0,0,1,1,2,2,3,3,4,4,5,5,6,6,7,7,8,8,9,9,10,10,11,11,12,12,13,13,14,14],"right_children":[2,4,6,8,10,12,14,16,18,20,22,24,26,28,30,-1,-1,-1,-1,-1,-1,-1,-1,-1,-1,-1,-1,-1,-1,-1,-1],"split_conditions":[-2.4794242E-1,2.4441475E-1,-7.881237E-1,-1.0530322E0,-8.8237685E-1,-8.311737E-1,-1.0317416E0,3.6869292E0,-9.9773335E-1,-1.3268454E0,-5.197242E-1,-9.382376E-1,-1.2242532E0,7.8214574E-1,1.6942725E-1,-5.897743E-3,-1.2132559E-2,-6.8749073E-3,-1.16357E-3,5.727884E-3,-7.479981E-3,2.3458914E-3,1.4503336E-2,-4.409867E-3,3.8476547E-3,1.1369046E-3,-9.319092E-3,-1.2324053E-3,-1.0225761E-2,2.0055594E-3,6.5962565E-3],"split_indices":[24,2,0,24,23,0,11,0,0,23,24,0,16,23,23,0,0,0,0,0,0,0,0,0,0,0,0,0,0,0,0],"split_type":[0,0,0,0,0,0,0,0,0,0,0,0,0,0,0,0,0,0,0,0,0,0,0,0,0,0,0,0,0,0,0],"sum_hessian":[1.00159753E3,3.6685477E2,6.347428E2,3.1907434E2,4.778044E1,1.2304319E2,5.116996E2,1.2697471E2,1.9209962E2,2.534299E1,2.243745E1,9.250571E1,3.0537485E1,4.771646E1,4.6398312E2,1.1535429E2,1.1620424E1,5.003349E1,1.4206613E2,1.0587977E1,1.4755013E1,1.531113E1,7.1263213E0,6.5157715E1,2.7347986E1,5.1657834E0,2.53717E1,3.5253242E1,1.2463219E1,1.981309E2,2.6585223E2],"tree_param":{"num_deleted":"0","num_feature":"25","num_nodes":"31","size_leaf_vector":"1"}},{"base_weights":[1.4644248E-2,-2.7626905E-1,2.2887276E-1,-5.421135E-1,-1.5289494E-1,-1.8493049E-1,3.468934E-1,-6.963216E-1,-2.1105396E-2,9.284258E-1,-2.2073096E-1,-9.1961965E-2,-1.0448837E0,1.0201231E-1,5.3714603E-1,-7.434565E-3,-2.0962826E-3,-3.03841E-3,1.02861505E-2,1.7347787E-2,3.2771358E-3,-2.5530097E-3,5.1732617E-3,-1.8708246E-3,1.0170579E-2,-5.3786743E-3,-1.36462115E-2,2.0334758E-3,-5.009777E-3,4.0884987E-3,8.5009225E-3],"categories":[],"categories_nodes":[],"categories_segments":[],"categories_sizes":[],"default_left":[0,0,0,0,0,0,0,0,0,0,0,0,0,0,0,0,0,0,0,0,0,0,0,0,0,0,0,0,0,0,0],"id":5,"left_children":[1,3,5,7,9,11,13,15,17,19,21,23,25,27,29,-1,-1,-1,-1,-1,-1,-1,-1,-1,-1,-1,-1,-1,-1,-1,-1],"loss_changes":[6.3372116E1,1.406189E1,2.8661898E1,1.093689E1,2.1914038E1,1.0345226E1,2.1188568E1,2.256256E0,9.858007E0,7.987051E0,7.2581415E0,1.2738934E1,1.3159342E0,1.235923E1,9.9457855E0,0E0,0E0,0E0,0E0,0E0,0E0,0E0,0E0,0E0,0E0,0E0,0E0,0E0,0E0,0E0,0E0],"parents":[2147483647,0,0,1,1,2,2,3,3,4,4,5,5,6,6,7,7,8,8,9,9,10,10,11,11,12,12,13,13,14,14],"right_children":[2,4,6,8,10,12,14,16,18,20,22,24,26,28,30,-1,-1,-1,-1,-1,-1,-1,-1,-1,-1,-1,-1,-1,-1,-1,-1],"split_conditions":[-2.8970677E-1,-1.034216E0,-7.537181E-1,4.9392205E-2,-1.5502193E0,-7.713134E-1,3.7600103E-1,-5.9296274E-1,-7.8498536E-1,-7.346211E-1,2.3277829E0,-7.9335016E-1,-7.2251624E-1,2.0244553E0,4.1964996E-1,-7.434565E-3,-2.0962826E-3,-3.03841E-3,1.02861505E-2,1.7347787E-2,3.2771358E-3,-2.5530097E-3,5.1732617E-3,-1.8708246E-3,1.0170579E-2,-5.3786743E-3,-1.36462115E-2,2.0334758E-3,-5.009777E-3,4.0884987E-3,8.5009225E-3],"split_indices":[23,24,11,1,23,11,23,23,23,24,9,10,4,20,17,0,0,0,0,0,0,0,0,0,0,0,0,0,0,0,0],"split_type":[0,0,0,0,0,0,0,0,0,0,0,0,0,0,0,0,0,0,0,0,0,0,0,0,0,0,0,0,0,0,0],"sum_hessian":[1.01483655E3,4.3026508E2,5.845715E2,1.3530917E2,2.949559E2,1.296004E2,4.5497107E2,1.0414717E2,3.1162008E1,1.6662693E1,2.782932E2,1.1795533E2,1.1645073E1,1.9959775E2,2.5537332E2,9.44704E1,9.676767E0,2.5109478E1,6.0525303E0,6.3077507E0,1.0354941E1,2.6646622E2,1.1826979E1,1.09403145E2,8.552186E0,5.5409126E0,6.10416E0,1.714479E2,2.814985E1,1.8275648E2,7.261684E1],"tree_param":{"num_deleted":"0","num_feature":"25","num_nodes":"31","size_leaf_vector":"1"}},{"base_weights":[-6.971216E-5,-3.595367E-1,2.068053E-1,-4.5486575E-1,2.5753254E-1,-2.7439648E-1,3.1691682E-1,-3.4212336E-1,-8.0046034E-1,7.086989E-1,-2.2671087E-1,-6.890329E-2,-6.138945E-1,4.3865335E-1,-6.4622834E-2,-6.231005E-3,-1.4519005E-3,-4.638794E-3,-8.956937E-3,2.3364834E-3,1.0475571E-2,3.6505382E-3,-5.1126843E-3,1.6090458E-3,-5.6020473E-3,-1.0073275E-2,-3.5058027E-3,4.9578142E-3,-7.6009505E-3,9.306925E-6,-8.160277E-3],"categories":[],"categories_nodes":[],"categories_segments":[],"categories_sizes":[],"default_left":[0,0,0,0,0,0,0,0,0,0,0,0,0,0,0,0,0,0,0,0,0,0,0,0,0,0,0,0,0,0,0],"id":6,"left_children":[1,3,5,7,9,11,13,15,17,19,21,23,25,27,29,-1,-1,-1,-1,-1,-1,-1,-1,-1,-1,-1,-1,-1,-1,-1,-1],"loss_changes":[7.515892E1,2.1834236E1,3.407717E1,1.2199936E1,1.10932455E1,8.328901E0,2.4297237E1,1.3363409E1,2.0847893E0,3.9643078E0,4.378429E0,8.656764E0,4.320875E0,2.7512543E1,6.269187E0,0E0,0E0,0E0,0E0,0E0,0E0,0E0,0E0,0E0,0E0,0E0,0E0,0E0,0E0,0E0,0E0],"parents":[2147483647,0,0,1,1,2,2,3,3,4,4,5,5,6,6,7,7,8,8,9,9,10,10,11,11,12,12,13,13,14,14],"right_children":[2,4,6,8,10,12,14,16,18,20,22,24,26,28,30,-1,-1,-1,-1,-1,-1,-1,-1,-1,-1,-1,-1,-1,-1,-1,-1],"split_conditions":[-2.4794242E-1,2.4654691E-1,-7.881237E-1,1.3914241E0,3.75675E-1,-5.443698E-1,4.4652277E-1,-8.5009223E-1,-1.1378524E0,-7.751768E-2,1.9260014E0,-8.311737E-1,-2.7136979E-1,2.3534458E0,1.2977921E0,-6.231005E-3,-1.4519005E-3,-4.638794E-3,-8.956937E-3,2.3364834E-3,1.0475571E-2,3.6505382E-3,-5.1126843E-3,1.6090458E-3,-5.6020473E-3,-1.0073275E-2,-3.5058027E-3,4.9578142E-3,-7.6009505E-3,9.306925E-6,-8.160277E-3],"split_indices":[24,1,0,0,0,7,0,0,20,0,5,0,1,3,24,0,0,0,0,0,0,0,0,0,0,0,0,0,0,0,0],"split_type":[0,0,0,0,0,0,0,0,0,0,0,0,0,0,0,0,0,0,0,0,0,0,0,0,0,0,0,0,0,0,0],"sum_hessian":[1.0086797E3,3.681838E2,6.4049585E2,3.1914328E2,4.9040546E1,1.18992226E2,5.215036E2,2.4214043E2,7.7002846E1,2.514738E1,2.3893167E1,7.487466E1,4.4117573E1,3.952446E2,1.2625901E2,9.888746E1,1.4325298E2,1.8277187E1,5.872566E1,1.1173121E1,1.3974259E1,7.6666837E0,1.6226484E1,5.1471283E1,2.340337E1,1.6555487E1,2.7562086E1,3.7782523E2,1.7419388E1,1.17046486E2,9.212524E0],"tree_param":{"num_deleted":"0","num_feature":"25","num_nodes":"31","size_leaf_vector":"1"}},{"base_weights":[-2.3449896E-2,3.5771126E-1,-2.9612195E-1,-2.2094019E-1,4.7345653E-1,-5.2482593E-1,1.2783042E-1,-6.570351E-2,-1.0927181E-2,6.2253225E-1,1.7216885E-1,-6.7501915E-1,-3.6151153E-1,-1.9881858E-2,9.01296E-1,7.549671E-4,-1.2851647E-2,2.8188978E-3,8.818009E-3,1.1637406E-2,9.6999016E-4,-1.0006355E-2,-6.0237655E-3,-1.9647744E-3,-5.0405515E-3,1.1033638E-2,-1.0889034E-3,1.1646025E-2,-8.778407E-4],"categories":[],"categories_nodes":[],"categories_segments":[],"categories_sizes":[],"default_left":[0,0,0,0,0,0,0,0,0,0,0,0,0,0,0,0,0,0,0,0,0,0,0,0,0,0,0,0,0],"id":7,"left_children":[1,3,5,7,9,11,13,15,-1,17,19,21,23,25,27,-1,-1,-1,-1,-1,-1,-1,-1,-1,-1,-1,-1,-1,-1],"loss_changes":[1.0640962E2,2.8703808E1,5.793394E1,9.652766E0,1.5889114E1,9.270012E0,2.4003624E1,1.0782964E1,0E0,2.0760223E1,8.777193E0,4.1492767E0,4.322954E0,1.7841726E1,8.875055E0,0E0,0E0,0E0,0E0,0E0,0E0,0E0,0E0,0E0,0E0,0E0,0E0,0E0,0E0],"parents":[2147483647,0,0,1,1,2,2,3,3,4,4,5,5,6,6,7,7,9,9,10,10,11,11,12,12,13,13,14,14],"right_children":[2,4,6,8,10,12,14,16,-1,18,20,22,24,26,28,-1,-1,-1,-1,-1,-1,-1,-1,-1,-1,-1,-1,-1,-1],"split_conditions":[-3.2033807E-1,-7.844819E-1,-4.318573E-2,-5.2183425E-1,3.3636284E-3,-5.330551E-1,6.850137E-1,-3.688832E-1,-1.0927181E-2,-4.6336827E-1,-6.2783974E-1,-1.1755525E0,2.7538565E-1,4.104453E-2,2.3213491E0,7.549671E-4,-1.2851647E-2,2.8188978E-3,8.818009E-3,1.1637406E-2,9.6999016E-4,-1.0006355E-2,-6.0237655E-3,-1.9647744E-3,-5.0405515E-3,1.1033638E-2,-1.0889034E-3,1.1646025E-2,-8.778407E-4],"split_indices":[19,0,3,1,0,24,24,19,0,13,3,4,24,5,4,0,0,0,0,0,0,0,0,0,0,0,0,0,0],"split_type":[0,0,0,0,0,0,0,0,0,0,0,0,0,0,0,0,0,0,0,0,0,0,0,0,0,0,0,0,0],"sum_hessian":[1.0218197E3,4.2600565E2,5.95814E2,7.085712E1,3.5514853E2,3.868742E2,2.0893985E2,6.1059647E1,9.797466E0,2.3687679E2,1.1827176E2,1.9990082E2,1.869734E2,1.7625409E2,3.2685757E1,5.5564034E1,5.495615E0,1.0327513E2,1.3360165E2,7.3137655E0,1.1095799E2,3.4131836E1,1.6576898E2,8.775307E1,9.922033E1,1.2104519E1,1.6414957E2,2.567363E1,7.012129E0],"tree_param":{"num_deleted":"0","num_feature":"25","num_nodes":"29","size_leaf_vector":"1"}},{"base_weights":[6.998899E-3,-3.7000304E-1,2.3505026E-1,-4.999159E-1,3.453845E-2,-3.7418103E-1,3.180192E-1,-3.9693227E-1,-8.60358E-1,5.668548E-1,-2.3402059E-1,-7.199754E-1,-1.6140455E-1,-3.177717E-1,3.974842E-1,-7.88903E-3,-2.8467586E-3,-1.1077565E-2,-3.940184E-3,3.1764325E-4,8.497195E-3,-4.3893307E-3,3.395321E-3,-3.9976145E-4,-1.1792508E-2,1.7387719E-3,-6.620302E-3,-1.548938E-3,-8.736063E-3,1.1951781E-3,6.147588E-3],"categories":[],"categories_nodes":[],"categories_segments":[],"categories_sizes":[],"default_left":[0,0,0,0,0,0,0,0,0,0,0,0,0,0,0,0,0,0,0,0,0,0,0,0,0,0,0,0,0,0,0],"id":8,"left_children":[1,3,5,7,9,11,13,15,17,19,21,23,25,27,29,-1,-1,-1,-1,-1,-1,-1,-1,-1,-1,-1,-1,-1,-1,-1,-1],"loss_changes":[8.822066E1,2.0343472E1,3.2435844E1,1.0527588E1,1.3706159E1,5.5560045E0,2.8583294E1,9.878071E0,6.9718895E0,4.8363056E0,7.649229E0,9.034067E0,8.342222E0,5.5802684E0,3.0191353E1,0E0,0E0,0E0,0E0,0E0,0E0,0E0,0E0,0E0,0E0,0E0,0E0,0E0,0E0,0E0,0E0],"parents":[2147483647,0,0,1,1,2,2,3,3,4,4,5,5,6,6,7,7,8,8,9,9,10,10,11,11,12,12,13,13,14,14],"right_children":[2,4,6,8,10,12,14,16,18,20,22,24,26,28,30,-1,-1,-1,-1,-1,-1,-1,-1,-1,-1,-1,-1,-1,-1,-1,-1],"split_conditions":[-2.3970781E-1,-5.552139E-2,-9.434009E-1,1.6113405E0,2.9685503E-1,-1.182328E0,-9.382376E-1,-1.0287261E0,-3.3166435E-1,4.4740653E-1,-6.626737E-1,-1.3130306E0,-1.0115842E0,-1.9473286E-1,2.390936E-1,-7.88903E-3,-2.8467586E-3,-1.1077565E-2,-3.940184E-3,3.1764325E-4,8.497195E-3,-4.3893307E-3,3.395321E-3,-3.9976145E-4,-1.1792508E-2,1.7387719E-3,-6.620302E-3,-1.548938E-3,-8.736063E-3,1.1951781E-3,6.147588E-3],"split_indices":[24,20,2,0,0,20,0,0,10,5,23,17,2,5,23,0,0,0,0,0,0,0,0,0,0,0,0,0,0,0,0],"split_type":[0,0,0,0,0,0,0,0,0,0,0,0,0,0,0,0,0,0,0,0,0,0,0,0,0,0,0,0,0,0,0],"sum_hessian":[1.0240988E3,3.8575964E2,6.3833905E2,2.918124E2,9.394724E1,7.6092285E1,5.6224677E2,2.2859943E2,6.321299E1,3.113104E1,6.2816196E1,2.8077818E1,4.801447E1,6.21325E1,5.0011426E2,4.955128E1,1.7904814E2,4.0403202E1,2.2809786E1,1.1150369E1,1.9980673E1,4.6454254E1,1.6361944E1,1.175722E1,1.6320597E1,2.91468E1,1.886767E1,4.9040638E1,1.309186E1,2.2009271E2,2.8002155E2],"tree_param":{"num_deleted":"0","num_feature":"25","num_nodes":"31","size_leaf_vector":"1"}},{"base_weights":[-1.2602102E-2,3.6970013E-1,-2.6832503E-1,-2.625987E-2,5.148082E-1,-4.1159326E-1,2.187455E-1,6.019693E-1,-1.2753998E-1,3.0390263E-1,6.596876E-1,-5.924853E-1,-1.9590059E-1,-1.440908E-2,9.449864E-1,1.6812703E-2,-1.2835404E-3,5.634294E-3,-2.2108E-3,4.3944E-3,-5.4706577E-3,7.168059E-3,-2.8257475E-3,-1.2873353E-3,-6.8257237E-3,1.9652748E-3,-3.6473195E-3,3.6946742E-3,-2.3605344E-3,1.458219E-2,7.2774845E-3],"categories":[],"categories_nodes":[],"categories_segments":[],"categories_sizes":[],"default_left":[0,0,0,0,0,0,0,0,0,0,0,0,0,0,0,0,0,0,0,0,0,0,0,0,0,0,0,0,0,0,0],"id":9,"left_children":[1,3,5,7,9,11,13,15,17,19,21,23,25,27,29,-1,-1,-1,-1,-1,-1,-1,-1,-1,-1,-1,-1,-1,-1,-1,-1],"loss_changes":[9.839524E1,2.319212E1,4.2171196E1,7.021082E0,8.821663E0,1.8078514E1,2.3332653E1,1.2297276E1,6.252674E0,1.4322029E1,9.576828E0,1.048732E1,1.4263026E1,9.04089E0,2.6719494E0,0E0,0E0,0E0,0E0,0E0,0E0,0E0,0E0,0E0,0E0,0E0,0E0,0E0,0E0,0E0,0E0],"parents":[2147483647,0,0,1,1,2,2,3,3,4,4,5,5,6,6,7,7,8,8,9,9,10,10,11,11,12,12,13,13,14,14],"right_children":[2,4,6,8,10,12,14,16,18,20,22,24,26,28,30,-1,-1,-1,-1,-1,-1,-1,-1,-1,-1,-1,-1,-1,-1,-1,-1],"split_conditions":[-3.571377E-1,-2.8970677E-1,2.9449308E-1,-5.872534E-1,-3.9265737E-1,-3.871777E-1,3.063127E-1,-6.318052E-1,-9.310356E-1,-4.8320416E-1,2.0089407E0,-1.5502193E0,2.7194208E-2,1.8938953E0,1.592084E0,1.6812703E-2,-1.2835404E-3,5.634294E-3,-2.2108E-3,4.3944E-3,-5.4706577E-3,7.168059E-3,-2.8257475E-3,-1.2873353E-3,-6.8257237E-3,1.9652748E-3,-3.6473195E-3,3.6946742E-3,-2.3605344E-3,1.458219E-2,7.2774845E-3],"split_indices":[19,23,2,24,22,23,23,2,19,13,2,23,23,5,2,0,0,0,0,0,0,0,0,0,0,0,0,0,0,0,0],"split_type":[0,0,0,0,0,0,0,0,0,0,0,0,0,0,0,0,0,0,0,0,0,0,0,0,0,0,0,0,0,0,0],"sum_hessian":[1.0044478E3,4.024079E2,6.020399E2,1.08140686E2,2.942672E2,4.6532343E2,1.367165E2,1.4327181E1,9.381351E1,1.2109011E2,1.731771E2,2.5212787E2,2.1319556E2,1.0423329E2,3.2483215E1,5.2566314E0,9.07055E0,1.0586782E1,8.322672E1,1.0487054E2,1.6219574E1,1.6350497E2,9.672112E0,4.1406063E1,2.107218E2,6.40816E1,1.4911395E2,3.7909344E1,6.632395E1,7.96145E0,2.4521763E1],"tree_param":{"num_deleted":"0","num_feature":"25","num_nodes":"31","size_leaf_vector":"1"}},{"base_weights":[-2.7036266E-2,4.10085E-1,-3.205673E-1,-1.5089823E-1,5.148256E-1,-5.107012E-1,2.9437803E-2,2.0637986E-1,-6.572838E-1,9.98188E-2,6.0472727E-1,-3.3611342E-1,-6.574803E-1,2.026154E-1,-2.2804826E-1,8.029684E-3,-1.9821853E-3,2.2082972E-4,-1.0467283E-2,-4.7007184E-3,3.1563556E-3,7.6115024E-3,3.6349567E-3,-5.4229954E-3,8.98537E-4,-5.791058E-3,-8.420099E-3,3.534562E-3,-3.0064543E-3,4.4865443E-4,-6.652098E-3],"categories":[],"categories_nodes":[],"categories_segments":[],"categories_sizes":[],"default_left":[0,0,0,0,0,0,0,0,0,0,0,0,0,0,0,0,0,0,0,0,0,0,0,0,0,0,0,0,0,0,0],"id":10,"left_children":[1,3,5,7,9,11,13,15,17,19,21,23,25,27,29,-1,-1,-1,-1,-1,-1,-1,-1,-1,-1,-1,-1,-1,-1,-1,-1],"loss_changes":[1.3099193E2,2.4178146E1,4.06572E1,1.1950889E1,1.2843628E1,9.921623E0,9.674476E0,9.585387E0,7.234041E0,7.869813E0,1.0442871E1,1.6105484E1,2.60701E0,9.946558E0,1.0445112E1,0E0,0E0,0E0,0E0,0E0,0E0,0E0,0E0,0E0,0E0,0E0,0E0,0E0,0E0,0E0,0E0],"parents":[2147483647,0,0,1,1,2,2,3,3,4,4,5,5,6,6,7,7,8,8,9,9,10,10,11,11,12,12,13,13,14,14],"right_children":[2,4,6,8,10,12,14,16,18,20,22,24,26,28,30,-1,-1,-1,-1,-1,-1,-1,-1,-1,-1,-1,-1,-1,-1,-1,-1],"split_conditions":[-3.571377E-1,-7.790641E-1,-4.318573E-2,3.8459593E-1,-9.094336E-2,3.27938E-1,2.864397E-1,-7.706001E-1,-9.059808E-1,-7.924542E-1,-6.836263E-1,-4.6097633E-1,-2.3166995E-1,6.536757E-1,2.1981246E0,8.029684E-3,-1.9821853E-3,2.2082972E-4,-1.0467283E-2,-4.7007184E-3,3.1563556E-3,7.6115024E-3,3.6349567E-3,-5.4229954E-3,8.98537E-4,-5.791058E-3,-8.420099E-3,3.534562E-3,-3.0064543E-3,4.4865443E-4,-6.652098E-3],"split_indices":[19,0,3,24,24,19,19,9,19,19,19,0,9,0,15,0,0,0,0,0,0,0,0,0,0,0,0,0,0,0,0],"split_type":[0,0,0,0,0,0,0,0,0,0,0,0,0,0,0,0,0,0,0,0,0,0,0,0,0,0,0,0,0,0,0],"sum_hessian":[1.018888E3,4.0916684E2,6.097211E2,6.430626E1,3.448606E2,3.947962E2,2.1492494E2,3.8051582E1,2.625468E1,6.1780056E1,2.8308054E2,1.818194E2,2.1297682E2,1.2862718E2,8.629777E1,1.4979458E1,2.3072123E1,9.910173E0,1.6344507E1,1.664604E1,4.5134018E1,1.7041939E2,1.1266114E2,1.22332275E2,5.9487114E1,1.523908E2,6.0586025E1,9.9193794E1,2.9433378E1,5.3682144E1,3.2615627E1],"tree_param":{"num_deleted":"0","num_feature":"25","num_nodes":"31","size_leaf_vector":"1"}},{"base_weights":[-4.2533383E-2,3.4785244E-1,-3.039941E-1,-2.6091644E-1,4.6862102E-1,-4.8357636E-1,5.6028962E-2,-5.1306803E-2,-1.0997682E0,-2.0757028E-1,5.907797E-1,-2.7666667E-1,-6.330177E-1,-3.059662E-1,2.788537E-1,2.9864782E-3,-5.5542174E-3,-1.509289E-2,-6.913536E-3,3.6069348E-3,-4.38185E-3,7.087219E-3,3.1807073E-3,-5.233875E-3,1.5087784E-3,-7.910868E-3,-4.901888E-3,-4.0422296E-3,3.925286E-3,3.893706E-3,-8.47565E-3],"categories":[],"categories_nodes":[],"categories_segments":[],"categories_sizes":[],"default_left":[0,0,0,0,0,0,0,0,0,0,0,0,0,0,0,0,0,0,0,0,0,0,0,0,0,0,0,0,0,0,0],"id":11,"left_children":[1,3,5,7,9,11,13,15,17,19,21,23,25,27,29,-1,-1,-1,-1,-1,-1,-1,-1,-1,-1,-1,-1,-1,-1,-1,-1],"loss_changes":[1.0592806E2,3.073E1,4.020547E1,1.2174421E1,2.8848297E1,1.2648552E1,1.6839756E1,1.0169176E1,1.2742901E0,7.2284236E0,9.256676E0,1.8612339E1,5.0312805E0,5.623028E0,1.640078E1,0E0,0E0,0E0,0E0,0E0,0E0,0E0,0E0,0E0,0E0,0E0,0E0,0E0,0E0,0E0,0E0],"parents":[2147483647,0,0,1,1,2,2,3,3,4,4,5,5,6,6,7,7,8,8,9,9,10,10,11,11,12,12,13,13,14,14],"right_children":[2,4,6,8,10,12,14,16,18,20,22,24,26,28,30,-1,-1,-1,-1,-1,-1,-1,-1,-1,-1,-1,-1,-1,-1,-1,-1],"split_conditions":[-3.571377E-1,-7.790641E-1,-2.0270484E-2,-5.238223E-1,-7.936552E-1,2.5145358E-1,-6.06082E-1,3.7003288E-1,-3.489739E-1,-1.2997934E0,2.1749103E-1,-5.184981E-1,-5.9296274E-1,2.1409476E0,2.3608396E0,2.9864782E-3,-5.5542174E-3,-1.509289E-2,-6.913536E-3,3.6069348E-3,-4.38185E-3,7.087219E-3,3.1807073E-3,-5.233875E-3,1.5087784E-3,-7.910868E-3,-4.901888E-3,-4.0422296E-3,3.925286E-3,3.893706E-3,-8.47565E-3],"split_indices":[19,0,20,3,23,19,23,24,20,23,16,0,23,20,3,0,0,0,0,0,0,0,0,0,0,0,0,0,0,0,0],"split_type":[0,0,0,0,0,0,0,0,0,0,0,0,0,0,0,0,0,0,0,0,0,0,0,0,0,0,0,0,0,0,0],"sum_hessian":[1.0357566E3,4.1531747E2,6.204391E2,6.856008E1,3.467574E2,4.1372614E2,2.0671297E2,5.5702484E1,1.28576E1,5.2951725E1,2.9380566E2,1.7469824E2,2.3902788E2,7.861843E1,1.2809454E2,3.311899E1,2.2583494E1,5.074186E0,7.783415E0,1.5122911E1,3.7828815E1,2.0398613E2,8.981952E1,1.1063217E2,6.406608E1,1.113063E2,1.2772158E2,6.929241E1,9.326019E0,1.172455E2,1.0849042E1],"tree_param":{"num_deleted":"0","num_feature":"25","num_nodes":"31","size_leaf_vector":"1"}},{"base_weights":[4.8169643E-3,4.1268766E-1,-2.663038E-1,-1.6938406E-1,5.2125937E-1,-4.0997803E-1,2.7188507E-1,2.8816843E-1,-5.392497E-1,1.2718642E-1,8.1317824E-1,-2.1674576E-1,-6.008656E-1,1.7270227E-1,1.1879317E-2,-1.9123241E-3,1.1369205E-2,-1.129114E-2,-2.2794055E-3,7.5109694E-3,2.0944141E-4,1.4135716E-3,8.519943E-3,-7.1084723E-3,-9.5370633E-4,-7.849494E-3,-4.12028E-3,5.089946E-3,-3.2332714E-4],"categories":[],"categories_nodes":[],"categories_segments":[],"categories_sizes":[],"default_left":[0,0,0,0,0,0,0,0,0,0,0,0,0,0,0,0,0,0,0,0,0,0,0,0,0,0,0,0,0],"id":12,"left_children":[1,3,5,7,9,11,13,15,17,19,21,23,25,27,-1,-1,-1,-1,-1,-1,-1,-1,-1,-1,-1,-1,-1,-1,-1],"loss_changes":[1.1260306E2,2.5783455E1,4.7409637E1,1.1100101E1,3.9345085E1,1.7692894E1,1.1559722E1,1.2245593E1,6.373765E0,9.735701E0,5.01178E0,1.4426719E1,8.106712E0,8.153371E0,0E0,0E0,0E0,0E0,0E0,0E0,0E0,0E0,0E0,0E0,0E0,0E0,0E0,0E0,0E0],"parents":[2147483647,0,0,1,1,2,2,3,3,4,4,5,5,6,6,7,7,8,8,9,9,10,10,11,11,12,12,13,13],"right_children":[2,4,6,8,10,12,14,16,18,20,22,24,26,28,-1,-1,-1,-1,-1,-1,-1,-1,-1,-1,-1,-1,-1,-1,-1],"split_conditions":[-3.571377E-1,-7.844819E-1,3.225387E-1,-7.360697E-1,1.4763443E-1,3.27938E-1,1.1376823E0,-8.667367E-1,-8.936202E-1,-7.236591E-1,-1.1071955E0,-1.0426918E0,-5.9296274E-1,1.9180362E0,1.1879317E-2,-1.9123241E-3,1.1369205E-2,-1.129114E-2,-2.2794055E-3,7.5109694E-3,2.0944141E-4,1.4135716E-3,8.519943E-3,-7.1084723E-3,-9.5370633E-4,-7.849494E-3,-4.12028E-3,5.089946E-3,-3.2332714E-4],"split_indices":[19,0,5,20,23,19,23,3,0,9,19,11,23,7,0,0,0,0,0,0,0,0,0,0,0,0,0,0,0],"split_type":[0,0,0,0,0,0,0,0,0,0,0,0,0,0,0,0,0,0,0,0,0,0,0,0,0,0,0,0,0],"sum_hessian":[1.01628064E3,4.0559158E2,6.106891E2,6.3672432E1,3.4191916E2,4.8219983E2,1.2848923E2,2.8561064E1,3.5111366E1,1.461122E2,1.9580696E2,2.4068945E2,2.4151039E2,1.1700889E2,1.1480332E1,1.8746925E1,9.814139E0,1.1221685E1,2.3889683E1,2.0377155E1,1.2573504E2,1.0948806E1,1.8485815E2,4.6507435E1,1.94182E2,1.2069602E2,1.2081436E2,4.375717E1,7.325172E1],"tree_param":{"num_deleted":"0","num_feature":"25","num_nodes":"29","size_leaf_vector":"1"}},{"base_weights":[-2.3635998E-3,3.7935236E-1,-2.6177967E-1,-1.6897328E-2,5.5571866E-1,-4.4625273E-1,7.84783E-2,8.349338E-3,-7.410469E-2,-1.6494688E-1,6.9139534E-1,-2.7526855E-1,-5.949603E-1,2.393252E-1,-2.9573712E-1,1.8061793E-3,-3.279271E-3,5.328982E-3,-5.3542946E-3,9.1257645E-3,4.6555162E-3,-4.7299853E-3,8.9249574E-4,5.824663E-4,-6.2288325E-3,3.0724336E-3,-1.007735E-2,-3.8149734E-5,-8.627235E-3],"categories":[],"categories_nodes":[],"categories_segments":[],"categories_sizes":[],"default_left":[0,0,0,0,0,0,0,0,0,0,0,0,0,0,0,0,0,0,0,0,0,0,0,0,0,0,0,0,0],"id":13,"left_children":[1,3,5,7,9,11,13,-1,15,17,19,21,23,25,27,-1,-1,-1,-1,-1,-1,-1,-1,-1,-1,-1,-1,-1,-1],"loss_changes":[1.0022321E2,2.8629265E1,3.7858482E1,6.255846E0,2.782637E1,9.775314E0,1.2873154E1,0E0,7.8193583E0,1.2103708E1,1.1499283E1,1.3281782E1,3.833809E0,1.2955748E1,1.0653627E1,0E0,0E0,0E0,0E0,0E0,0E0,0E0,0E0,0E0,0E0,0E0,0E0,0E0,0E0],"parents":[2147483647,0,0,1,1,2,2,3,3,4,4,5,5,6,6,8,8,9,9,10,10,11,11,12,12,13,13,14,14],"right_children":[2,4,6,8,10,12,14,-1,16,18,20,22,24,26,28,-1,-1,-1,-1,-1,-1,-1,-1,-1,-1,-1,-1,-1,-1],"split_conditions":[-3.571377E-1,-1.2832573E-1,-4.168666E-2,-1.5502193E0,-7.844819E-1,3.5220906E-1,5.870886E-1,8.349338E-3,-6.421304E-1,-7.622637E-1,-2.760617E-1,-4.7785318E-1,-1.3694079E0,2.3931925E0,2.173802E0,1.8061793E-3,-3.279271E-3,5.328982E-3,-5.3542946E-3,9.1257645E-3,4.6555162E-3,-4.7299853E-3,8.9249574E-4,5.824663E-4,-6.2288325E-3,3.0724336E-3,-1.007735E-2,-3.8149734E-5,-8.627235E-3],"split_indices":[19,23,20,23,0,19,19,0,19,2,0,0,20,16,9,0,0,0,0,0,0,0,0,0,0,0,0,0,0],"split_type":[0,0,0,0,0,0,0,0,0,0,0,0,0,0,0,0,0,0,0,0,0,0,0,0,0,0,0,0,0],"sum_hessian":[1.010115E3,4.085276E2,6.015874E2,1.26105385E2,2.824222E2,3.8989294E2,2.1169446E2,7.080481E0,1.1902491E2,4.471209E1,2.3771013E2,1.8268852E2,2.0720442E2,1.4830838E2,6.3386086E1,5.955106E1,5.9473846E1,1.535356E1,2.9358526E1,1.1855854E2,1.1915159E2,1.18248146E2,6.444037E1,8.449831E0,1.987546E2,1.41363E2,6.945375E0,4.2507263E1,2.0878826E1],"tree_param":{"num_deleted":"0","num_feature":"25","num_nodes":"29","size_leaf_vector":"1"}},{"base_weights":[-5.864632E-3,3.883156E-1,-2.7245784E-1,-1.2345041E-1,4.8629433E-1,-4.7583553E-1,9.744308E-2,1.2945223E-2,-2.641769E-1,6.276357E-1,1.9320153E-1,-4.1570202E-1,-9.0355855E-1,3.0685967E-1,-2.0861265E-1,2.556284E-3,-4.659778E-3,3.149419E-3,8.575245E-3,5.2287993E-3,9.95852E-5,-3.0741154E-3,-5.7709515E-3,-3.3687565E-3,-1.0615697E-2,1.19564235E-2,2.1541822E-3,4.7073237E-4,-6.2254528E-3],"categories":[],"categories_nodes":[],"categories_segments":[],"categories_sizes":[],"default_left":[0,0,0,0,0,0,0,0,0,0,0,0,0,0,0,0,0,0,0,0,0,0,0,0,0,0,0,0,0],"id":14,"left_children":[1,3,5,7,9,11,13,-1,15,17,19,21,23,25,27,-1,-1,-1,-1,-1,-1,-1,-1,-1,-1,-1,-1,-1,-1],"loss_changes":[1.0757802E2,2.0770306E1,4.598747E1,1.3744852E1,1.4247986E1,9.7634735E0,1.4002724E1,0E0,6.615723E0,1.6519966E1,6.8995323E0,5.8953667E0,3.916912E0,1.0269418E1,9.443204E0,0E0,0E0,0E0,0E0,0E0,0E0,0E0,0E0,0E0,0E0,0E0,0E0,0E0,0E0],"parents":[2147483647,0,0,1,1,2,2,3,3,4,4,5,5,6,6,8,8,9,9,10,10,11,11,12,12,13,13,14,14],"right_children":[2,4,6,8,10,12,14,-1,16,18,20,22,24,26,28,-1,-1,-1,-1,-1,-1,-1,-1,-1,-1,-1,-1,-1,-1],"split_conditions":[-3.571377E-1,-7.790641E-1,-4.318573E-2,-1.0348448E0,3.3636284E-3,2.1264677E0,2.864397E-1,1.2945223E-2,-9.310356E-1,-4.6172714E-1,-6.836263E-1,-4.4679776E-1,-1.108406E0,3.7789453E-2,2.1981246E0,2.556284E-3,-4.659778E-3,3.149419E-3,8.575245E-3,5.2287993E-3,9.95852E-5,-3.0741154E-3,-5.7709515E-3,-3.3687565E-3,-1.0615697E-2,1.19564235E-2,2.1541822E-3,4.7073237E-4,-6.2254528E-3],"split_indices":[19,0,3,5,0,0,19,0,19,15,19,9,3,12,15,0,0,0,0,0,0,0,0,0,0,0,0,0,0],"split_type":[0,0,0,0,0,0,0,0,0,0,0,0,0,0,0,0,0,0,0,0,0,0,0,0,0,0,0,0,0],"sum_hessian":[1.02170953E3,4.120309E2,6.096786E2,6.61667E1,3.4586423E2,3.9320276E2,2.1647581E2,5.2336035E0,6.09331E1,2.3256866E2,1.1329556E2,3.4646518E2,4.673758E1,1.2852846E2,8.794736E1,1.696566E1,4.396744E1,9.954199E1,1.3302667E2,3.981308E1,7.348248E1,2.0908171E2,1.3738348E2,1.0873476E1,3.5864105E1,1.0863461E1,1.1766499E2,5.491357E1,3.303379E1],"tree_param":{"num_deleted":"0","num_feature":"25","num_nodes":"29","size_leaf_vector":"1"}},{"base_weights":[1.4407396E-2,3.770906E-1,-2.3349701E-1,-9.0930335E-2,4.6489212E-1,-3.5462174E-1,1.8919913E-1,2.8691205E-1,-5.8864725E-1,3.5069987E-2,6.139553E-1,-1.5578559E-1,-5.3921515E-1,5.0340736E-1,-1.8216278E-1,5.2131135E-3,-9.756048E-3,-2.1736093E-3,-9.273714E-3,7.029558E-3,-1.184577E-3,8.642592E-3,3.085602E-3,-4.5743394E-3,1.5793877E-3,-6.8779755E-3,-3.4821494E-3,4.120837E-3,1.3258502E-2,-9.6921185E-3,1.0884452E-3],"categories":[],"categories_nodes":[],"categories_segments":[],"categories_sizes":[],"default_left":[0,0,0,0,0,0,0,0,0,0,0,0,0,0,0,0,0,0,0,0,0,0,0,0,0,0,0,0,0,0,0],"id":15,"left_children":[1,3,5,7,9,11,13,15,17,19,21,23,25,27,29,-1,-1,-1,-1,-1,-1,-1,-1,-1,-1,-1,-1,-1,-1,-1,-1],"loss_changes":[9.098916E1,1.692588E1,3.0845387E1,1.2531726E1,2.215493E1,1.7078888E1,1.5791183E1,1.1766539E1,3.4074764E0,9.33104E0,1.9373978E1,2.150922E1,6.630577E0,4.9475956E0,1.4397154E1,0E0,0E0,0E0,0E0,0E0,0E0,0E0,0E0,0E0,0E0,0E0,0E0,0E0,0E0,0E0,0E0],"parents":[2147483647,0,0,1,1,2,2,3,3,4,4,5,5,6,6,7,7,8,8,9,9,10,10,11,11,12,12,13,13,14,14],"right_children":[2,4,6,8,10,12,14,16,18,20,22,24,26,28,30,-1,-1,-1,-1,-1,-1,-1,-1,-1,-1,-1,-1,-1,-1,-1,-1],"split_conditions":[-3.571377E-1,-7.844819E-1,3.1484127E-1,3.8459593E-1,9.469779E-2,3.27938E-1,2.173802E0,-5.2616775E-1,-8.442622E-1,-7.265598E-1,-1.3133182E-1,-4.7785318E-1,1.1688181E0,2.0880327E0,2.2371347E0,5.2131135E-3,-9.756048E-3,-2.1736093E-3,-9.273714E-3,7.029558E-3,-1.184577E-3,8.642592E-3,3.085602E-3,-4.5743394E-3,1.5793877E-3,-6.8779755E-3,-3.4821494E-3,4.120837E-3,1.3258502E-2,-9.6921185E-3,1.0884452E-3],"split_indices":[19,0,22,24,24,19,9,1,0,7,0,0,19,7,2,0,0,0,0,0,0,0,0,0,0,0,0,0,0,0,0],"split_type":[0,0,0,0,0,0,0,0,0,0,0,0,0,0,0,0,0,0,0,0,0,0,0,0,0,0,0,0,0,0,0],"sum_hessian":[1.0100148E3,4.0986407E2,6.0015076E2,6.4739296E1,3.451248E2,4.6660486E2,1.3354587E2,3.7042202E1,2.769709E1,8.918785E1,2.5593692E2,2.2552397E2,2.410809E2,7.214696E1,6.1398903E1,3.173699E1,5.3052135E0,1.3996636E1,1.3700453E1,1.6000925E1,7.318692E1,1.396494E2,1.1628754E2,1.1474128E2,1.10782684E2,1.3413438E2,1.0694652E2,6.6287476E1,5.859482E0,1.5944736E1,4.5454166E1],"tree_param":{"num_deleted":"0","num_feature":"25","num_nodes":"31","size_leaf_vector":"1"}},{"base_weights":[-1.0600068E-2,2.0414454E-1,-4.7653973E-1,-3.0550595E-2,4.3303567E-1,-5.686675E-1,-5.753591E-2,-1.0714697E0,1.0147567E-2,2.855453E-1,9.0537316E-1,-4.800844E-1,-7.704309E-1,8.7882355E-2,-1.0059779E-2,-5.589434E-3,-1.353081E-2,-6.44551E-3,8.40297E-4,6.0544293E-3,1.073226E-3,1.0045397E-2,-2.2223617E-3,-5.1509244E-3,3.3800977E-3,-3.636088E-3,-8.816788E-3,7.162045E-3,-3.941582E-3],"categories":[],"categories_nodes":[],"categories_segments":[],"categories_sizes":[],"default_left":[0,0,0,0,0,0,0,0,0,0,0,0,0,0,0,0,0,0,0,0,0,0,0,0,0,0,0,0,0],"id":16,"left_children":[1,3,5,7,9,11,13,15,17,19,21,23,25,27,-1,-1,-1,-1,-1,-1,-1,-1,-1,-1,-1,-1,-1,-1,-1],"loss_changes":[1.021482E2,3.7555214E1,1.2399666E1,1.4667987E1,2.4393623E1,4.3468475E0,8.248184E0,1.1240473E0,1.6207825E1,1.5392551E1,9.587486E0,5.502323E0,3.2485657E0,1.609771E1,0E0,0E0,0E0,0E0,0E0,0E0,0E0,0E0,0E0,0E0,0E0,0E0,0E0,0E0,0E0],"parents":[2147483647,0,0,1,1,2,2,3,3,4,4,5,5,6,6,7,7,8,8,9,9,10,10,11,11,12,12,13,13],"right_children":[2,4,6,8,10,12,14,16,18,20,22,24,26,28,-1,-1,-1,-1,-1,-1,-1,-1,-1,-1,-1,-1,-1,-1,-1],"split_conditions":[2.5145358E-1,-3.6340255E-1,2.9631355E-1,-1.051557E0,9.460438E-1,1.5275385E0,2.2954981E0,-5.427777E-1,-1.182328E0,4.2099465E-2,2.2743993E0,1.3473871E0,-1.108406E0,1.7282042E-1,-1.0059779E-2,-5.589434E-3,-1.353081E-2,-6.44551E-3,8.40297E-4,6.0544293E-3,1.073226E-3,1.0045397E-2,-2.2223617E-3,-5.1509244E-3,3.3800977E-3,-3.636088E-3,-8.816788E-3,7.162045E-3,-3.941582E-3],"split_indices":[19,2,3,0,24,0,20,20,20,9,7,0,3,0,0,0,0,0,0,0,0,0,0,0,0,0,0,0,0],"split_type":[0,0,0,0,0,0,0,0,0,0,0,0,0,0,0,0,0,0,0,0,0,0,0,0,0,0,0,0,0],"sum_hessian":[1.0189173E3,6.9785034E2,3.210669E2,3.4498456E2,3.528658E2,2.6290414E2,5.8162773E1,1.202779E1,3.3295676E2,2.701228E2,8.274303E1,1.8504196E2,7.7862175E1,5.1217304E1,6.945467E0,5.323659E0,6.7041316E0,3.2980408E1,2.9997635E2,9.578969E1,1.743331E2,7.61548E1,6.58822E0,1.7780373E2,7.2382355E0,1.763634E1,6.0225838E1,2.2024023E1,2.9193283E1],"tree_param":{"num_deleted":"0","num_feature":"25","num_nodes":"29","size_leaf_vector":"1"}},{"base_weights":[-7.2004516E-3,3.53614E-1,-2.5544834E-1,-2.3434694E-1,4.701533E-1,-4.298695E-1,2.7301868E-2,-5.353617E-2,-1.1664584E-2,2.3464082E-1,6.419268E-1,-2.2013561E-1,-5.8998954E-1,8.309199E-2,-1.1155173E-2,3.0015737E-3,-5.2502947E-3,1.1804806E-2,1.2663131E-3,3.644139E-3,7.863E-3,-4.121774E-3,2.4809027E-3,-4.825123E-3,-7.3268143E-3,-2.1947955E-3,3.733692E-3],"categories":[],"categories_nodes":[],"categories_segments":[],"categories_sizes":[],"default_left":[0,0,0,0,0,0,0,0,0,0,0,0,0,0,0,0,0,0,0,0,0,0,0,0,0,0,0],"id":17,"left_children":[1,3,5,7,9,11,13,15,-1,17,19,21,23,25,-1,-1,-1,-1,-1,-1,-1,-1,-1,-1,-1,-1,-1],"loss_changes":[9.097753E1,2.84775E1,2.9685776E1,1.1592016E1,1.38405E1,1.2369331E1,1.4788883E1,9.990793E0,0E0,1.491264E1,7.702858E0,1.4734575E1,2.874199E0,1.9466072E1,0E0,0E0,0E0,0E0,0E0,0E0,0E0,0E0,0E0,0E0,0E0,0E0,0E0],"parents":[2147483647,0,0,1,1,2,2,3,3,4,4,5,5,6,6,7,7,9,9,10,10,11,11,12,12,13,13],"right_children":[2,4,6,8,10,12,14,16,-1,18,20,22,24,26,-1,-1,-1,-1,-1,-1,-1,-1,-1,-1,-1,-1,-1],"split_conditions":[-3.571377E-1,-7.844819E-1,-8.70518E-2,-5.238223E-1,1.4763443E-1,2.5145358E-1,2.3608396E0,3.7003288E-1,-1.1664584E-2,-7.4587435E-1,-3.5668507E-1,1.3326958E-1,8.484407E-1,-3.871777E-1,-1.1155173E-2,3.0015737E-3,-5.2502947E-3,1.1804806E-2,1.2663131E-3,3.644139E-3,7.863E-3,-4.121774E-3,2.4809027E-3,-4.825123E-3,-7.3268143E-3,-2.1947955E-3,3.733692E-3],"split_indices":[19,0,22,3,23,19,3,24,0,20,22,0,0,23,0,0,0,0,0,0,0,0,0,0,0,0,0],"split_type":[0,0,0,0,0,0,0,0,0,0,0,0,0,0,0,0,0,0,0,0,0,0,0,0,0,0,0],"sum_hessian":[1.01368964E3,4.1299704E2,6.0069257E2,6.815127E1,3.4484576E2,3.7119305E2,2.2949951E2,5.796472E1,1.0186547E1,1.464371E2,1.9840868E2,1.617279E2,2.0946515E2,2.1970143E2,9.798086E0,3.3327377E1,2.4637344E1,1.3990736E1,1.3244637E2,6.910322E1,1.2930545E2,1.1477352E2,4.6954388E1,1.2197422E2,8.749092E1,1.07692085E2,1.12009346E2],"tree_param":{"num_deleted":"0","num_feature":"25","num_nodes":"27","size_leaf_vector":"1"}},{"base_weights":[5.4027E-3,3.4326652E-1,-2.3465629E-1,-1.8320625E-1,4.4669914E-1,-3.7806362E-1,1.9430074E-1,9.994301E-3,-3.072481E-1,4.2056275E-4,5.2546275E-1,-2.13369E-1,-5.4305273E-1,-7.546264E-2,6.750194E-1,2.0606203E-3,-4.51171E-3,4.826174E-3,-1.980806E-3,2.7430477E-3,6.246075E-3,-4.1823895E-3,7.206846E-4,-7.1410825E-3,-3.4581246E-3,7.075776E-3,-1.3771438E-3,8.5973395E-3,-2.7852347E-3],"categories":[],"categories_nodes":[],"categories_segments":[],"categories_sizes":[],"default_left":[0,0,0,0,0,0,0,0,0,0,0,0,0,0,0,0,0,0,0,0,0,0,0,0,0,0,0,0,0],"id":18,"left_children":[1,3,5,7,9,11,13,-1,15,17,19,21,23,25,27,-1,-1,-1,-1,-1,-1,-1,-1,-1,-1,-1,-1,-1,-1],"loss_changes":[8.190764E1,2.2924118E1,3.639227E1,1.0515439E1,1.2333626E1,1.1916611E1,1.9319714E1,0E0,4.8024335E0,5.2297087E0,7.2553406E0,1.3085356E1,7.1945953E0,4.780737E0,9.664446E0,0E0,0E0,0E0,0E0,0E0,0E0,0E0,0E0,0E0,0E0,0E0,0E0,0E0,0E0],"parents":[2147483647,0,0,1,1,2,2,3,3,4,4,5,5,6,6,8,8,9,9,10,10,11,11,12,12,13,13,14,14],"right_children":[2,4,6,8,10,12,14,-1,16,18,20,22,24,26,28,-1,-1,-1,-1,-1,-1,-1,-1,-1,-1,-1,-1,-1,-1],"split_conditions":[-3.3834663E-1,-7.844819E-1,2.1138889E-1,-1.0322238E0,-7.936552E-1,3.676718E-1,3.815591E-2,9.994301E-3,-9.6548766E-1,-1.3668633E0,-5.0006264E-1,6.385674E-2,1.1688181E0,2.672553E-1,2.3507345E0,2.0606203E-3,-4.51171E-3,4.826174E-3,-1.980806E-3,2.7430477E-3,6.246075E-3,-4.1823895E-3,7.206846E-4,-7.1410825E-3,-3.4581246E-3,7.075776E-3,-1.3771438E-3,8.5973395E-3,-2.7852347E-3],"split_indices":[19,0,3,5,23,19,23,0,19,23,15,0,19,6,5,0,0,0,0,0,0,0,0,0,0,0,0,0,0],"split_type":[0,0,0,0,0,0,0,0,0,0,0,0,0,0,0,0,0,0,0,0,0,0,0,0,0,0,0,0,0],"sum_hessian":[1.0078752E3,4.1847507E2,5.8940015E2,6.8588394E1,3.498867E2,4.4181335E2,1.4758675E2,5.841103E0,6.2747295E1,5.2638657E1,2.9724802E2,2.2225166E2,2.195617E2,9.507617E1,5.251058E1,1.3646049E1,4.9101246E1,1.4932788E1,3.770587E1,8.519497E1,2.1205305E2,1.2911522E2,9.313645E1,1.1618253E2,1.03379166E2,6.2384744E0,8.88377E1,4.4071663E1,8.438917E0],"tree_param":{"num_deleted":"0","num_feature":"25","num_nodes":"29","size_leaf_vector":"1"}},{"base_weights":[-1.3799448E-2,-2.3122711E-1,2.133832E-1,-5.785993E-1,-1.4992496E-1,-2.3287782E-1,3.4923255E-1,-4.838224E-2,-6.5646267E-1,-6.2359426E-2,-5.910339E-1,7.453095E-3,-3.1339005E-1,3.83563E-1,-8.302699E-3,-1.1403604E-2,8.880364E-3,-1.033869E-2,-4.971944E-3,-7.316792E-3,1.0181975E-4,-6.9188504E-3,1.76399E-3,-2.181694E-3,-1.16670225E-2,5.6781047E-3,1.0624314E-3],"categories":[],"categories_nodes":[],"categories_segments":[],"categories_sizes":[],"default_left":[0,0,0,0,0,0,0,0,0,0,0,0,0,0,0,0,0,0,0,0,0,0,0,0,0,0,0],"id":19,"left_children":[1,3,5,7,9,11,13,15,17,19,21,-1,23,25,-1,-1,-1,-1,-1,-1,-1,-1,-1,-1,-1,-1,-1],"loss_changes":[4.98467E1,1.4475E1,3.0000948E1,3.990982E0,1.6153774E1,9.3516245E0,1.5655113E1,1.4874854E1,4.5881844E0,1.7042671E1,5.4863377E0,0E0,8.494398E0,1.8779675E1,0E0,0E0,0E0,0E0,0E0,0E0,0E0,0E0,0E0,0E0,0E0,0E0,0E0],"parents":[2147483647,0,0,1,1,2,2,3,3,4,4,5,5,6,6,7,7,8,8,9,9,10,10,12,12,13,13],"right_children":[2,4,6,8,10,12,14,16,18,20,22,-1,24,26,-1,-1,-1,-1,-1,-1,-1,-1,-1,-1,-1,-1,-1],"split_conditions":[-5.7369515E-2,-9.173047E-1,-7.537181E-1,-8.255918E-1,1.6113405E0,8.0631755E-2,2.3534458E0,-9.0946203E-1,-7.272725E-1,-1.1934713E0,4.9392205E-2,7.453095E-3,-7.713134E-1,3.3636284E-3,-8.302699E-3,-1.1403604E-2,8.880364E-3,-1.033869E-2,-4.971944E-3,-7.316792E-3,1.0181975E-4,-6.9188504E-3,1.76399E-3,-2.181694E-3,-1.16670225E-2,5.6781047E-3,1.0624314E-3],"split_indices":[23,0,11,20,0,23,3,12,22,20,1,0,11,0,0,0,0,0,0,0,0,0,0,0,0,0,0],"split_type":[0,0,0,0,0,0,0,0,0,0,0,0,0,0,0,0,0,0,0,0,0,0,0,0,0,0,0],"sum_hessian":[1.0071296E3,5.146042E2,4.9252542E2,9.643948E1,4.1816467E2,1.14775894E2,3.7774954E2,1.255649E1,8.3882996E1,3.4985544E2,6.8309235E1,8.100567E0,1.0667533E2,3.677215E2,1.0028047E1,5.6962175E0,6.8602724E0,2.326419E1,6.0618805E1,3.332142E1,3.1653403E2,6.046213E1,7.8471055E0,9.70961E1,9.579227E0,2.2030585E2,1.4741563E2],"tree_param":{"num_deleted":"0","num_feature":"25","num_nodes":"27","size_leaf_vector":"1"}},{"base_weights":[-8.7507295E-5,-3.7730205E-1,1.401255E-1,-2.4366547E-1,-7.603696E-1,-2.6139244E-1,2.5089934E-1,-5.395231E-1,-2.0467311E-2,1.9986217E-3,-8.387099E-1,-1.8063274E-1,-1.0408851E0,3.7942803E-1,-9.272622E-2,-1.0121699E-2,-4.269624E-3,4.752239E-3,-1.9119196E-3,-1.1377029E-2,-5.150748E-3,1.5130355E-4,-4.935765E-3,-6.499911E-3,-1.5009485E-2,2.7397345E-3,8.297817E-3,-2.461974E-3,1.7145075E-3],"categories":[],"categories_nodes":[],"categories_segments":[],"categories_sizes":[],"default_left":[0,0,0,0,0,0,0,0,0,0,0,0,0,0,0,0,0,0,0,0,0,0,0,0,0,0,0,0,0],"id":20,"left_children":[1,3,5,7,9,11,13,15,17,-1,19,21,23,25,27,-1,-1,-1,-1,-1,-1,-1,-1,-1,-1,-1,-1,-1,-1],"loss_changes":[5.377572E1,1.39189415E1,3.3033455E1,1.3574366E1,5.4924965E0,9.932443E0,2.5715656E1,4.2722588E0,1.0102566E1,0E0,5.7655373E0,9.005951E0,1.700819E0,1.987931E1,6.49214E0,0E0,0E0,0E0,0E0,0E0,0E0,0E0,0E0,0E0,0E0,0E0,0E0,0E0,0E0],"parents":[2147483647,0,0,1,1,2,2,3,3,4,4,5,5,6,6,7,7,8,8,10,10,11,11,12,12,13,13,14,14],"right_children":[2,4,6,8,10,12,14,16,18,-1,20,22,24,26,28,-1,-1,-1,-1,-1,-1,-1,-1,-1,-1,-1,-1,-1,-1],"split_conditions":[-5.4622644E-1,1.5638353E0,-7.790641E-1,-6.8066734E-1,-1.3263283E0,1.4575092E0,4.0163776E-1,-9.41811E-1,-5.079429E-1,1.9986217E-3,-3.3166435E-1,-5.443698E-1,9.3706155E-1,1.1376823E0,5.9626424E-1,-1.0121699E-2,-4.269624E-3,4.752239E-3,-1.9119196E-3,-1.1377029E-2,-5.150748E-3,1.5130355E-4,-4.935765E-3,-6.499911E-3,-1.5009485E-2,2.7397345E-3,8.297817E-3,-2.461974E-3,1.7145075E-3],"split_indices":[24,0,0,0,20,23,0,12,5,0,10,7,24,23,24,0,0,0,0,0,0,0,0,0,0,0,0,0,0],"split_type":[0,0,0,0,0,0,0,0,0,0,0,0,0,0,0,0,0,0,0,0,0,0,0,0,0,0,0,0,0],"sum_hessian":[1.01473956E3,2.7451688E2,7.4022266E2,2.0473079E2,6.978609E1,1.5976578E2,5.804569E2,8.742646E1,1.1730433E2,5.1470094E0,6.463908E1,1.4588321E2,1.3882569E1,4.223705E2,1.5808641E2,1.5278638E1,7.214782E1,2.9594494E1,8.770983E1,3.2291195E1,3.2347885E1,9.032914E1,5.555406E1,8.80998E0,5.0725894E0,3.4353656E2,7.8833954E1,1.0003819E2,5.804821E1],"tree_param":{"num_deleted":"0","num_feature":"25","num_nodes":"29","size_leaf_vector":"1"}},{"base_weights":[5.991941E-3,3.9112744E-1,-2.564346E-1,1.1278901E-1,5.3492826E-1,-3.9775097E-1,1.7168242E-1,6.2083876E-1,-7.89514E-3,3.213964E-1,6.916196E-1,-2.2884491E-1,-5.6326914E-1,-6.5326236E-2,6.2830776E-1,1.472659E-2,1.7625776E-3,-6.978544E-3,1.7058688E-3,4.4494197E-3,-2.4145294E-3,1.37337E-2,6.2054256E-3,-3.1433725E-3,6.9707184E-4,-1.0874774E-3,-5.9297006E-3,1.5632657E-3,-4.6533076E-3,9.646322E-3,-1.6604952E-3],"categories":[],"categories_nodes":[],"categories_segments":[],"categories_sizes":[],"default_left":[0,0,0,0,0,0,0,0,0,0,0,0,0,0,0,0,0,0,0,0,0,0,0,0,0,0,0,0,0,0,0],"id":21,"left_children":[1,3,5,7,9,11,13,15,17,19,21,23,25,27,29,-1,-1,-1,-1,-1,-1,-1,-1,-1,-1,-1,-1,-1,-1,-1,-1],"loss_changes":[1.00236E2,1.602599E1,3.5754444E1,8.476894E0,8.635178E0,1.2277618E1,1.5958952E1,9.789295E0,1.3990128E1,8.028497E0,6.504387E0,5.6709223E0,2.9520264E0,8.737842E0,1.3612049E1,0E0,0E0,0E0,0E0,0E0,0E0,0E0,0E0,0E0,0E0,0E0,0E0,0E0,0E0,0E0,0E0],"parents":[2147483647,0,0,1,1,2,2,3,3,4,4,5,5,6,6,7,7,8,8,9,9,10,10,11,11,12,12,13,13,14,14],"right_children":[2,4,6,8,10,12,14,16,18,20,22,24,26,28,30,-1,-1,-1,-1,-1,-1,-1,-1,-1,-1,-1,-1,-1,-1,-1,-1],"split_conditions":[-3.571377E-1,-5.7369515E-2,1.9736095E-1,-7.4587435E-1,-3.5668507E-1,3.27938E-1,5.2773617E-2,-3.5066676E-1,-7.1655387E-1,-4.1530713E-1,-1.0273397E0,1.3533214E-1,-2.7965949E0,6.1371195E-1,2.198069E0,1.472659E-2,1.7625776E-3,-6.978544E-3,1.7058688E-3,4.4494197E-3,-2.4145294E-3,1.37337E-2,6.2054256E-3,-3.1433725E-3,6.9707184E-4,-1.0874774E-3,-5.9297006E-3,1.5632657E-3,-4.6533076E-3,9.646322E-3,-1.6604952E-3],"split_indices":[19,23,20,20,22,19,23,24,22,20,19,19,24,19,11,0,0,0,0,0,0,0,0,0,0,0,0,0,0,0,0],"split_type":[0,0,0,0,0,0,0,0,0,0,0,0,0,0,0,0,0,0,0,0,0,0,0,0,0,0,0,0,0,0,0],"sum_hessian":[9.897581E2,4.0090384E2,5.888543E2,1.3717487E2,2.6372894E2,4.4277155E2,1.4608273E2,2.5534933E1,1.1163994E2,1.1291059E2,1.5081836E2,2.2032227E2,2.224493E2,9.6731674E1,4.9351055E1,7.96379E0,1.7571142E1,2.2346186E1,8.9293755E1,9.275937E1,2.0151226E1,1.2509398E1,1.3830896E2,1.712351E2,4.908716E1,1.393039E1,2.085189E2,6.263384E1,3.4097836E1,3.4520855E1,1.4830202E1],"tree_param":{"num_deleted":"0","num_feature":"25","num_nodes":"31","size_leaf_vector":"1"}},{"base_weights":[2.7461538E-2,3.68091E-1,-2.0314087E-1,-4.458238E-2,4.504976E-1,-3.8012585E-1,1.05247594E-1,1.2531376E-1,-1.0085454E-2,-8.493614E-2,5.391378E-1,-4.920558E-1,-1.7955299E-1,3.531463E-2,9.8898983E-1,4.9917377E-3,-3.316917E-3,-3.6770527E-3,3.2083483E-3,6.94612E-3,2.13567E-3,-4.460869E-3,-1.0246592E-2,-1.1185715E-3,-1.2574832E-2,1.0790116E-2,-3.7408582E-4,1.2624793E-2,6.8855076E-3],"categories":[],"categories_nodes":[],"categories_segments":[],"categories_sizes":[],"default_left":[0,0,0,0,0,0,0,0,0,0,0,0,0,0,0,0,0,0,0,0,0,0,0,0,0,0,0,0,0],"id":22,"left_children":[1,3,5,7,9,11,13,15,-1,17,19,21,23,25,27,-1,-1,-1,-1,-1,-1,-1,-1,-1,-1,-1,-1,-1,-1],"loss_changes":[7.74962E1,1.3563332E1,3.2154076E1,1.113179E1,1.5805206E1,8.309212E0,1.3273025E1,1.0078535E1,0E0,5.628515E0,1.4278923E1,5.406723E0,9.750657E0,1.5264319E1,4.2510033E-1,0E0,0E0,0E0,0E0,0E0,0E0,0E0,0E0,0E0,0E0,0E0,0E0,0E0,0E0],"parents":[2147483647,0,0,1,1,2,2,3,3,4,4,5,5,6,6,7,7,9,9,10,10,11,11,12,12,13,13,14,14],"right_children":[2,4,6,8,10,12,14,16,-1,18,20,22,24,26,28,-1,-1,-1,-1,-1,-1,-1,-1,-1,-1,-1,-1,-1,-1],"split_conditions":[-3.688832E-1,-7.790641E-1,-4.318573E-2,-4.991702E-1,-8.210597E-1,-1.4899665E-1,1.1376823E0,3.4926006E-1,-1.0085454E-2,-2.4794242E-1,3.3636284E-3,3.2609107E0,1.4864769E0,4.0062413E-2,-2.1507931E-1,4.9917377E-3,-3.316917E-3,-3.6770527E-3,3.2083483E-3,6.94612E-3,2.13567E-3,-4.460869E-3,-1.0246592E-2,-1.1185715E-3,-1.2574832E-2,1.0790116E-2,-3.7408582E-4,1.2624793E-2,6.8855076E-3],"split_indices":[19,0,3,7,23,24,23,24,0,24,0,0,24,7,0,0,0,0,0,0,0,0,0,0,0,0,0,0,0],"split_type":[0,0,0,0,0,0,0,0,0,0,0,0,0,0,0,0,0,0,0,0,0,0,0,0,0,0,0,0,0],"sum_hessian":[9.8463275E2,3.9724884E2,5.873839E2,6.61989E1,3.3104993E2,3.7305438E2,2.1432954E2,5.7019375E1,9.179524E0,4.7026543E1,2.840234E2,2.3850377E2,1.3455061E2,1.9957646E2,1.4753077E1,3.1311926E1,2.5707449E1,2.7769001E1,1.925754E1,1.914596E2,9.2563805E1,2.2124567E2,1.725811E1,1.2763847E2,6.9121413E0,1.2098987E1,1.8747748E2,6.0466766E0,8.7064E0],"tree_param":{"num_deleted":"0","num_feature":"25","num_nodes":"29","size_leaf_vector":"1"}},{"base_weights":[-3.7035674E-3,-3.417721E-1,1.5021242E-1,-4.0090474E-1,3.170788E-2,-3.2114455E-1,2.7885976E-1,-3.7651372E-1,-1.2357159E-2,6.9977164E-1,-2.9939744E-1,-2.3683178E-1,-1.0239975E0,3.9741626E-1,-7.502054E-2,-7.521839E-3,-3.1593337E-3,-1.1254688E-3,1.2244433E-2,4.285874E-3,-5.847899E-3,-6.3630734E-3,-1.1739122E-4,-6.6263354E-3,-1.4878176E-2,1.7809112E-3,6.1531435E-3,2.5608055E-5,-9.345035E-3],"categories":[],"categories_nodes":[],"categories_segments":[],"categories_sizes":[],"default_left":[0,0,0,0,0,0,0,0,0,0,0,0,0,0,0,0,0,0,0,0,0,0,0,0,0,0,0,0,0],"id":23,"left_children":[1,3,5,7,9,11,13,15,-1,17,19,21,23,25,27,-1,-1,-1,-1,-1,-1,-1,-1,-1,-1,-1,-1,-1,-1],"loss_changes":[5.2578697E1,6.994129E0,4.219477E1,5.0931625E0,9.972367E0,8.60748E0,2.2937874E1,5.831314E0,0E0,6.4990454E0,6.527213E0,1.2099942E1,1.6447544E0,1.944416E1,9.195045E0,0E0,0E0,0E0,0E0,0E0,0E0,0E0,0E0,0E0,0E0,0E0,0E0,0E0,0E0],"parents":[2147483647,0,0,1,1,2,2,3,3,4,4,5,5,6,6,7,7,9,9,10,10,11,11,12,12,13,13,14,14],"right_children":[2,4,6,8,10,12,14,16,-1,18,20,22,24,26,28,-1,-1,-1,-1,-1,-1,-1,-1,-1,-1,-1,-1,-1,-1],"split_conditions":[-4.3064865E-1,2.758008E-1,-7.790641E-1,1.9505535E-1,1.9043875E0,1.4575092E0,4.4652277E-1,-1.1755525E0,-1.2357159E-2,4.4740653E-1,1.6047011E-1,-2.256682E-1,9.201052E-1,3.7600103E-1,1.2977921E0,-7.521839E-3,-3.1593337E-3,-1.1254688E-3,1.2244433E-2,4.285874E-3,-5.847899E-3,-6.3630734E-3,-1.1739122E-4,-6.6263354E-3,-1.4878176E-2,1.7809112E-3,6.1531435E-3,2.5608055E-5,-9.345035E-3],"split_indices":[24,22,0,22,8,23,0,4,0,5,0,23,24,23,24,0,0,0,0,0,0,0,0,0,0,0,0,0,0],"split_type":[0,0,0,0,0,0,0,0,0,0,0,0,0,0,0,0,0,0,0,0,0,0,0,0,0,0,0,0,0],"sum_hessian":[1.0084785E3,3.1511786E2,6.9336066E2,2.7198187E2,4.313599E1,1.4834311E2,5.450175E2,2.656707E2,6.311191E0,1.3925461E1,2.921053E1,1.3364793E2,1.4695171E1,4.08155E2,1.3686253E2,3.530728E1,2.303634E2,5.772981E0,8.152479E0,8.085112E0,2.1125418E1,4.7507946E1,8.613999E1,9.624968E0,5.0702033E0,2.0431711E2,2.0383788E2,1.264459E2,1.0416635E1],"tree_param":{"num_deleted":"0","num_feature":"25","num_nodes":"29","size_leaf_vector":"1"}},{"base_weights":[-1.7955413E-2,-3.0615047E-1,2.0147751E-1,-7.9510623E-1,-2.621562E-1,-1.7793758E-1,3.1561276E-1,-3.4782332E-1,-1.2126017E0,5.9959643E-2,-3.2908326E-1,9.320514E-3,-2.301441E-1,1.9079965E-1,5.0308377E-1,-6.060299E-3,2.4496817E-3,-5.4806266E-3,-1.5078767E-2,5.885546E-3,-2.166203E-3,-5.300094E-3,-1.7785894E-3,-1.550203E-3,-9.311636E-3,2.566883E-3,-4.689997E-3,3.597663E-3,7.3706154E-3],"categories":[],"categories_nodes":[],"categories_segments":[],"categories_sizes":[],"default_left":[0,0,0,0,0,0,0,0,0,0,0,0,0,0,0,0,0,0,0,0,0,0,0,0,0,0,0,0,0],"id":24,"left_children":[1,3,5,7,9,11,13,15,17,19,21,-1,23,25,27,-1,-1,-1,-1,-1,-1,-1,-1,-1,-1,-1,-1,-1,-1],"loss_changes":[6.4076744E1,9.212826E0,2.4969082E1,6.237671E0,8.714342E0,7.960988E0,1.0260719E1,2.998325E0,2.7140045E0,1.0394579E1,1.0056744E1,0E0,6.621584E0,1.1741811E1,5.6464844E0,0E0,0E0,0E0,0E0,0E0,0E0,0E0,0E0,0E0,0E0,0E0,0E0,0E0,0E0],"parents":[2147483647,0,0,1,1,2,2,3,3,4,4,5,5,6,6,7,7,8,8,9,9,10,10,12,12,13,13,14,14],"right_children":[2,4,6,8,10,12,14,16,18,20,22,-1,24,26,28,-1,-1,-1,-1,-1,-1,-1,-1,-1,-1,-1,-1,-1,-1],"split_conditions":[-2.8970677E-1,-1.1755525E0,-7.537181E-1,-1.2408694E0,-1.3974689E0,-1.7988658E-1,6.9908214E-1,-1.2581496E0,-1.3027163E0,-4.991702E-1,-8.8237685E-1,9.320514E-3,-7.713134E-1,2.1981246E0,2.1100423E-1,-6.060299E-3,2.4496817E-3,-5.4806266E-3,-1.5078767E-2,5.885546E-3,-2.166203E-3,-5.300094E-3,-1.7785894E-3,-1.550203E-3,-9.311636E-3,2.566883E-3,-4.689997E-3,3.597663E-3,7.3706154E-3],"split_indices":[23,4,11,18,23,23,23,17,2,7,23,0,11,15,20,0,0,0,0,0,0,0,0,0,0,0,0,0,0],"split_type":[0,0,0,0,0,0,0,0,0,0,0,0,0,0,0,0,0,0,0,0,0,0,0,0,0,0,0,0,0],"sum_hessian":[1.01126404E3,4.3696945E2,5.742946E2,3.4661858E1,4.023076E2,1.3267838E2,4.4161624E2,1.761895E1,1.7042908E1,6.922688E1,3.330807E2,5.2029376E0,1.2747543E2,2.663232E2,1.7529301E2,1.2257519E1,5.361431E0,6.1216908E0,1.0921216E1,2.3392176E1,4.583471E1,1.4195953E2,1.9112115E2,1.1623988E2,1.1235553E1,2.4269795E2,2.3625265E1,1.1028078E2,6.501224E1],"tree_param":{"num_deleted":"0","num_feature":"25","num_nodes":"29","size_leaf_vector":"1"}},{"base_weights":[1.8338706E-2,-2.666754E-1,1.8519099E-1,-1.5716307E-1,-6.2610984E-1,-2.951167E-1,2.992921E-1,-4.3805575E-1,-1.621421E-2,-1.2565659E-1,-7.5669754E-1,7.346878E-2,-5.180897E-1,-2.8844827E-1,3.6035186E-1,-2.2671125E-3,-7.313724E-3,-6.061285E-3,7.523498E-4,-9.941355E-3,7.4156784E-3,-1.2278826E-2,-4.450027E-3,-1.0800093E-3,7.950453E-3,-1.0379058E-2,-3.9379713E-3,-1.2304069E-3,-7.292684E-3,5.5817775E-3,2.2973183E-3],"categories":[],"categories_nodes":[],"categories_segments":[],"categories_sizes":[],"default_left":[0,0,0,0,0,0,0,0,0,0,0,0,0,0,0,0,0,0,0,0,0,0,0,0,0,0,0,0,0,0,0],"id":25,"left_children":[1,3,5,7,9,11,13,15,17,19,21,23,25,27,29,-1,-1,-1,-1,-1,-1,-1,-1,-1,-1,-1,-1,-1,-1,-1,-1],"loss_changes":[4.7659073E1,1.4469028E1,3.4727547E1,1.1276236E1,5.531151E0,1.0050792E1,1.845055E1,5.734844E0,1.033916E1,1.505836E1,9.451534E0,6.2137117E0,4.50383E0,3.4589024E0,1.1850189E1,0E0,0E0,0E0,0E0,0E0,0E0,0E0,0E0,0E0,0E0,0E0,0E0,0E0,0E0,0E0,0E0],"parents":[2147483647,0,0,1,1,2,2,3,3,4,4,5,5,6,6,7,7,8,8,9,9,10,10,11,11,12,12,13,13,14,14],"right_children":[2,4,6,8,10,12,14,16,18,20,22,24,26,28,30,-1,-1,-1,-1,-1,-1,-1,-1,-1,-1,-1,-1,-1,-1,-1,-1],"split_conditions":[-2.4794242E-1,1.3914241E0,-7.881237E-1,-8.5009223E-1,-1.1378524E0,-7.706001E-1,-1.0317416E0,-6.4657134E-1,-1.2569982E0,-1.1344945E0,-3.4870574E-1,-8.340522E-1,-7.537181E-1,-1.055275E0,-2.357652E-1,-2.2671125E-3,-7.313724E-3,-6.061285E-3,7.523498E-4,-9.941355E-3,7.4156784E-3,-1.2278826E-2,-4.450027E-3,-1.0800093E-3,7.950453E-3,-1.0379058E-2,-3.9379713E-3,-1.2304069E-3,-7.292684E-3,5.5817775E-3,2.2973183E-3],"split_indices":[24,0,0,0,20,9,11,24,2,9,22,17,11,7,0,0,0,0,0,0,0,0,0,0,0,0,0,0,0,0,0],"split_type":[0,0,0,0,0,0,0,0,0,0,0,0,0,0,0,0,0,0,0,0,0,0,0,0,0,0,0,0,0,0,0],"sum_hessian":[1.0001446E3,3.6908386E2,6.310607E2,2.8399393E2,8.508991E1,1.2083216E2,5.1022858E2,9.418587E1,1.8980807E2,1.8014584E1,6.7075325E1,4.579736E1,7.5034805E1,4.7668076E1,4.625605E2,5.5772694E1,3.8413174E1,2.4719719E1,1.6508835E2,8.927663E0,9.086921E0,2.5535007E1,4.154032E1,3.72737E1,8.523659E0,1.3060923E1,6.197388E1,3.5592083E1,1.2075991E1,1.826544E2,2.799061E2],"tree_param":{"num_deleted":"0","num_feature":"25","num_nodes":"31","size_leaf_vector":"1"}},{"base_weights":[-2.4297256E-2,-2.602982E-1,1.489139E-1,-8.588873E-1,-2.0399219E-1,-5.008778E-1,2.3231806E-1,-1.0111653E-3,-1.0548912E0,1.3557559E-1,-2.772847E-1,-6.727996E-1,-7.091964E-2,-3.101962E-1,3.142737E-1,-3.3884896E-3,-1.2584896E-2,3.4084793E-3,-7.763028E-3,-5.4838476E-3,-1.7110493E-3,-1.0879843E-2,-5.3923745E-3,3.2625347E-3,-1.0413751E-2,7.26708E-3,-5.306729E-3,4.0573142E-3,-2.6625252E-4],"categories":[],"categories_nodes":[],"categories_segments":[],"categories_sizes":[],"default_left":[0,0,0,0,0,0,0,0,0,0,0,0,0,0,0,0,0,0,0,0,0,0,0,0,0,0,0,0,0],"id":26,"left_children":[1,3,5,7,9,11,13,-1,15,17,19,21,23,25,27,-1,-1,-1,-1,-1,-1,-1,-1,-1,-1,-1,-1,-1,-1],"loss_changes":[4.127951E1,1.4229948E1,3.168375E1,5.3048954E0,9.792723E0,4.8735123E0,2.307987E1,0E0,3.7782288E0,1.3415111E1,9.195484E0,2.0440693E0,8.10042E0,1.6009342E1,1.4027031E1,0E0,0E0,0E0,0E0,0E0,0E0,0E0,0E0,0E0,0E0,0E0,0E0,0E0,0E0],"parents":[2147483647,0,0,1,1,2,2,3,3,4,4,5,5,6,6,8,8,9,9,10,10,11,11,12,12,13,13,14,14],"right_children":[2,4,6,8,10,12,14,-1,16,18,20,22,24,26,28,-1,-1,-1,-1,-1,-1,-1,-1,-1,-1,-1,-1,-1,-1],"split_conditions":[-2.8970677E-1,-1.1755525E0,-9.4335204E-1,-1.2697874E0,-1.3974689E0,6.780935E-1,-1.0031741E0,-1.0111653E-3,-1.6554883E0,2.3882923E0,-7.6694673E-1,-1.6921593E-1,-1.3191025E-1,1.4871365E-3,4.5396528E-1,-3.3884896E-3,-1.2584896E-2,3.4084793E-3,-7.763028E-3,-5.4838476E-3,-1.7110493E-3,-1.0879843E-2,-5.3923745E-3,3.2625347E-3,-1.0413751E-2,7.26708E-3,-5.306729E-3,4.0573142E-3,-2.6625252E-4],"split_indices":[23,4,0,13,23,23,12,0,23,0,0,23,2,23,0,0,0,0,0,0,0,0,0,0,0,0,0,0,0],"split_type":[0,0,0,0,0,0,0,0,0,0,0,0,0,0,0,0,0,0,0,0,0,0,0,0,0,0,0,0,0],"sum_hessian":[1.007874E3,4.2639975E2,5.8147424E2,3.5435123E1,3.9096463E2,6.557579E1,5.1589844E2,7.59356E0,2.7841564E1,6.925468E1,3.2170996E2,4.6441166E1,1.9134626E1,6.734117E1,4.4855728E2,6.7536635E0,2.1087902E1,5.704053E1,1.2214144E1,8.936838E1,2.3234158E2,9.56426E0,3.6876907E1,1.4048774E1,5.085852E0,1.1405399E1,5.5935772E1,3.535226E2,9.503469E1],"tree_param":{"num_deleted":"0","num_feature":"25","num_nodes":"29","size_leaf_vector":"1"}},{"base_weights":[1.1366065E-2,2.0807944E-1,-4.4140303E-1,-5.9373368E-2,4.2523098E-1,-5.477096E-1,-1.496393E-2,-5.850046E-1,2.2406012E-2,-1.62891E-1,5.546749E-1,2.0651685E-3,-5.6890094E-1,3.8958198E-1,-5.9107405E-1,-8.881528E-3,8.00343E-4,-5.6906003E-3,8.265071E-4,1.0502673E-3,-8.526093E-3,-1.2904234E-3,6.072954E-3,-1.0820412E-2,-5.3377566E-3,7.8943E-3,5.1887904E-4,-3.366236E-3,-1.2960159E-2],"categories":[],"categories_nodes":[],"categories_segments":[],"categories_sizes":[],"default_left":[0,0,0,0,0,0,0,0,0,0,0,0,0,0,0,0,0,0,0,0,0,0,0,0,0,0,0,0,0],"id":27,"left_children":[1,3,5,7,9,11,13,15,17,19,21,-1,23,25,27,-1,-1,-1,-1,-1,-1,-1,-1,-1,-1,-1,-1,-1,-1],"loss_changes":[8.9283066E1,4.0609123E1,1.3756081E1,1.3510794E1,2.945942E1,4.0015182E0,1.4590369E1,8.601624E0,9.763723E0,1.3092188E1,1.1462242E1,0E0,3.6875916E0,4.9279747E0,4.1942234E0,0E0,0E0,0E0,0E0,0E0,0E0,0E0,0E0,0E0,0E0,0E0,0E0,0E0,0E0],"parents":[2147483647,0,0,1,1,2,2,3,3,4,4,5,5,6,6,7,7,8,8,9,9,10,10,12,12,13,13,14,14],"right_children":[2,4,6,8,10,12,14,16,18,20,22,-1,24,26,28,-1,-1,-1,-1,-1,-1,-1,-1,-1,-1,-1,-1,-1,-1],"split_conditions":[3.075819E-1,-5.7369515E-2,3.029123E-1,-9.688011E-1,-7.844819E-1,-1.3950423E0,2.198069E0,7.711338E-3,-1.0750424E0,-5.2867985E-1,-1.0425303E0,2.0651685E-3,-1.2569982E0,1.240099E-1,2.2954981E0,-8.881528E-3,8.00343E-4,-5.6906003E-3,8.265071E-4,1.0502673E-3,-8.526093E-3,-1.2904234E-3,6.072954E-3,-1.0820412E-2,-5.3377566E-3,7.8943E-3,5.1887904E-4,-3.366236E-3,-1.2960159E-2],"split_indices":[19,23,5,0,0,20,11,19,13,4,16,0,2,0,20,0,0,0,0,0,0,0,0,0,0,0,0,0,0],"split_type":[0,0,0,0,0,0,0,0,0,0,0,0,0,0,0,0,0,0,0,0,0,0,0,0,0,0,0,0,0],"sum_hessian":[1.0004088E3,6.9778467E2,3.026242E2,3.1300336E2,3.8478128E2,2.4200952E2,6.0614666E1,4.131306E1,2.716903E2,6.9365265E1,3.1541602E2,6.3748717E0,2.3563466E2,3.579976E1,2.4814905E1,2.8147121E1,1.3165941E1,2.4334547E1,2.4735574E2,5.056951E1,1.8795753E1,2.243661E1,2.929794E2,1.3186688E1,2.2244797E2,1.5778936E1,2.0020823E1,1.9319138E1,5.4957676E0],"tree_param":{"num_deleted":"0","num_feature":"25","num_nodes":"29","size_leaf_vector":"1"}},{"base_weights":[-1.3447197E-3,1.8637633E-1,-4.127707E-1,4.308677E-1,1.7450387E-2,-5.184098E-1,4.7576156E-2,-1.3546585E-1,5.2605695E-1,-9.258522E-2,3.4373596E-1,-4.9024948E-1,-1.264341E-2,2.0987791E-1,-1.0763216E-2,3.2970815E-3,-4.435294E-3,1.780028E-3,6.308769E-3,-6.40936E-4,-1.1104129E-2,5.482184E-3,-4.360867E-3,-5.4008407E-3,3.721363E-3,8.025643E-3,-1.7483092E-3],"categories":[],"categories_nodes":[],"categories_segments":[],"categories_sizes":[],"default_left":[0,0,0,0,0,0,0,0,0,0,0,0,0,0,0,0,0,0,0,0,0,0,0,0,0,0,0],"id":28,"left_children":[1,3,5,7,9,11,13,15,17,19,21,23,-1,25,-1,-1,-1,-1,-1,-1,-1,-1,-1,-1,-1,-1,-1],"loss_changes":[7.8031075E1,2.8646412E1,1.5418636E1,1.5351402E1,1.4800177E1,4.7901764E0,1.1170277E1,6.104947E0,8.748077E0,8.872065E0,1.6814589E1,1.0937172E1,0E0,1.2285216E1,0E0,0E0,0E0,0E0,0E0,0E0,0E0,0E0,0E0,0E0,0E0,0E0,0E0],"parents":[2147483647,0,0,1,1,2,2,3,3,4,4,5,5,6,6,7,7,8,8,9,9,10,10,11,11,13,13],"right_children":[2,4,6,8,10,12,14,16,18,20,22,24,-1,26,-1,-1,-1,-1,-1,-1,-1,-1,-1,-1,-1,-1,-1],"split_conditions":[2.5145358E-1,-5.92022E-1,2.9687053E-1,-7.881237E-1,3.2171738E-1,1.9001058E-1,2.2954981E0,2.9784313E-1,9.469779E-2,1.9216148E0,2.3515236E0,4.9392205E-2,-1.264341E-2,1.240099E-1,-1.0763216E-2,3.2970815E-3,-4.435294E-3,1.780028E-3,6.308769E-3,-6.40936E-4,-1.1104129E-2,5.482184E-3,-4.360867E-3,-5.4008407E-3,3.721363E-3,8.025643E-3,-1.7483092E-3],"split_indices":[19,19,4,0,11,21,20,24,24,0,20,21,0,0,0,0,0,0,0,0,0,0,0,0,0,0,0],"split_type":[0,0,0,0,0,0,0,0,0,0,0,0,0,0,0,0,0,0,0,0,0,0,0,0,0,0,0],"sum_hessian":[1.0083331E3,6.92784E2,3.155491E2,2.8244403E2,4.1033997E2,2.565505E2,5.8998615E1,4.0581158E1,2.4186288E2,3.0739218E2,1.0294781E2,2.4881453E2,7.7359734E0,5.226439E1,6.7342267E0,1.6139841E1,2.4441315E1,5.6604877E1,1.8525801E2,3.0005582E2,7.3363614E0,8.179643E1,2.1151379E1,2.3557512E2,1.3239409E1,2.0144068E1,3.212032E1],"tree_param":{"num_deleted":"0","num_feature":"25","num_nodes":"27","size_leaf_vector":"1"}},{"base_weights":[5.7470966E-3,3.3769712E-1,-2.1557213E-1,-1.6581121E-1,4.411523E-1,-3.2738388E-1,1.7829318E-1,2.5142847E-2,-1.0689078E-2,2.173567E-1,6.66341E-1,-2.0171079E-1,-5.0972617E-1,6.2035613E-2,1.0833651E0,3.3971341E-3,-3.0807364E-3,8.450447E-3,1.3422094E-3,2.8278588E-3,7.7215973E-3,-3.7894738E-3,3.286946E-4,-6.9980966E-3,-3.481681E-3,7.940581E-3,-3.7632245E-4,1.325719E-2,6.9823703E-3],"categories":[],"categories_nodes":[],"categories_segments":[],"categories_sizes":[],"default_left":[0,0,0,0,0,0,0,0,0,0,0,0,0,0,0,0,0,0,0,0,0,0,0,0,0,0,0,0,0],"id":29,"left_children":[1,3,5,7,9,11,13,15,-1,17,19,21,23,25,27,-1,-1,-1,-1,-1,-1,-1,-1,-1,-1,-1,-1,-1,-1],"loss_changes":[7.4399445E1,2.1174599E1,2.6816792E1,1.205932E1,1.6804337E1,1.0750263E1,1.4137478E1,6.24422E0,0E0,8.766347E0,6.565956E0,1.173816E1,5.670494E0,8.835461E0,5.029583E-1,0E0,0E0,0E0,0E0,0E0,0E0,0E0,0E0,0E0,0E0,0E0,0E0,0E0,0E0],"parents":[2147483647,0,0,1,1,2,2,3,3,4,4,5,5,6,6,7,7,9,9,10,10,11,11,12,12,13,13,14,14],"right_children":[2,4,6,8,10,12,14,16,-1,18,20,22,24,26,28,-1,-1,-1,-1,-1,-1,-1,-1,-1,-1,-1,-1,-1,-1],"split_conditions":[-3.688832E-1,-7.844819E-1,3.1177032E-1,-5.2183425E-1,3.7600103E-1,5.870886E-1,9.513962E-1,2.9784313E-1,-1.0689078E-2,-7.2936535E-1,-5.0935733E-1,1.1256772E-1,1.1688181E0,9.9621105E-1,6.550445E-2,3.3971341E-3,-3.0807364E-3,8.450447E-3,1.3422094E-3,2.8278588E-3,7.7215973E-3,-3.7894738E-3,3.286946E-4,-6.9980966E-3,-3.481681E-3,7.940581E-3,-3.7632245E-4,1.325719E-2,6.9823703E-3],"split_indices":[19,0,15,1,23,19,23,24,0,12,16,0,19,7,19,0,0,0,0,0,0,0,0,0,0,0,0,0,0],"split_type":[0,0,0,0,0,0,0,0,0,0,0,0,0,0,0,0,0,0,0,0,0,0,0,0,0,0,0,0,0],"sum_hessian":[1.0107023E3,4.0409164E2,6.0661066E2,6.877354E1,3.353181E2,4.7261267E2,1.3399799E2,5.757238E1,1.1201156E1,1.6916492E2,1.661532E2,2.8102927E2,1.9158339E2,1.1969195E2,1.4306032E1,2.9604744E1,2.7967636E1,1.871314E1,1.5045177E2,3.672189E1,1.294313E2,1.5973012E2,1.2129916E2,8.649033E1,1.05093056E2,1.3508693E1,1.0618326E2,7.2815847E0,7.0244474E0],"tree_param":{"num_deleted":"0","num_feature":"25","num_nodes":"29","size_leaf_vector":"1"}},{"base_weights":[-9.717992E-4,2.0876504E-1,-4.4510764E-1,-2.6104987E-1,3.3162436E-1,-5.9118146E-1,-2.0915985E-1,-3.3006534E-1,9.321933E-3,7.373694E-2,5.9748745E-1,2.1210557E-3,-6.1352706E-1,-1.3484026E-1,-1.2942655E-2,9.940034E-3,-3.9271615E-3,-8.7063825E-3,1.2818807E-3,2.220954E-3,6.9740126E-3,-7.916042E-3,-5.066847E-3,-2.5465833E-3,8.692399E-3],"categories":[],"categories_nodes":[],"categories_segments":[],"categories_sizes":[],"default_left":[0,0,0,0,0,0,0,0,0,0,0,0,0,0,0,0,0,0,0,0,0,0,0,0,0],"id":30,"left_children":[1,3,5,7,9,11,13,15,-1,17,19,-1,21,23,-1,-1,-1,-1,-1,-1,-1,-1,-1,-1,-1],"loss_changes":[9.405069E1,3.9671608E1,1.1038307E1,1.2061251E1,3.7259197E1,3.7107086E0,9.9367485E0,1.1643732E1,0E0,1.4372077E1,9.887726E0,0E0,3.2963333E0,1.4472912E1,0E0,0E0,0E0,0E0,0E0,0E0,0E0,0E0,0E0,0E0,0E0],"parents":[2147483647,0,0,1,1,2,2,3,3,4,4,5,5,6,6,7,7,9,9,10,10,12,12,13,13],"right_children":[2,4,6,8,10,12,14,16,-1,18,20,-1,22,24,-1,-1,-1,-1,-1,-1,-1,-1,-1,-1,-1],"split_conditions":[2.5145358E-1,-7.790641E-1,-1.5907252E-1,1.6508557E-1,1.4763443E-1,-1.3421793E0,2.2954981E0,-1.3974689E0,9.321933E-3,-1.2536964E0,-5.2852136E-1,2.1210557E-3,-8.8237685E-1,2.1689138E0,-1.2942655E-2,9.940034E-3,-3.9271615E-3,-8.7063825E-3,1.2818807E-3,2.220954E-3,6.9740126E-3,-7.916042E-3,-5.066847E-3,-2.5465833E-3,8.692399E-3],"split_indices":[19,0,6,19,23,8,20,23,0,20,3,0,23,20,0,0,0,0,0,0,0,0,0,0,0],"split_type":[0,0,0,0,0,0,0,0,0,0,0,0,0,0,0,0,0,0,0,0,0,0,0,0,0],"sum_hessian":[1.00765393E3,6.8479785E2,3.228561E2,1.4172307E2,5.4307477E2,1.9847556E2,1.24380554E2,1.3465804E2,7.065041E0,2.7632074E2,2.6675403E2,5.1418734E0,1.9333368E2,1.17459915E2,6.920641E0,5.412111E0,1.2924593E2,1.4246511E1,2.6207425E2,5.675171E1,2.100023E2,7.00951E1,1.2323858E2,1.0560439E2,1.1855521E1],"tree_param":{"num_deleted":"0","num_feature":"25","num_nodes":"25","size_leaf_vector":"1"}},{"base_weights":[1.0120697E-2,1.5536958E-1,-3.345571E-1,3.335064E-1,1.8437546E-2,-4.4508845E-1,-1.3103634E-1,1.0679939E-1,5.569707E-1,-9.8205484E-2,3.4403673E-1,4.162303E-3,-4.807751E-1,4.086835E-2,-6.3167703E-1,2.1249251E-3,-4.3092067E-3,7.3180925E-3,3.090992E-3,-1.2558578E-4,-4.595767E-3,4.612201E-3,-7.7517033E-3,-8.677143E-3,-4.1854423E-3,-1.4063733E-3,7.6846704E-3,-1.2322211E-2,-2.9085958E-3],"categories":[],"categories_nodes":[],"categories_segments":[],"categories_sizes":[],"default_left":[0,0,0,0,0,0,0,0,0,0,0,0,0,0,0,0,0,0,0,0,0,0,0,0,0,0,0,0,0],"id":31,"left_children":[1,3,5,7,9,11,13,15,17,19,21,-1,23,25,27,-1,-1,-1,-1,-1,-1,-1,-1,-1,-1,-1,-1,-1,-1],"loss_changes":[5.033435E1,1.7246275E1,6.6471214E0,1.5510262E1,1.5261328E1,6.1248856E0,9.176614E0,8.832333E0,6.470989E0,9.154725E0,1.4256209E1,0E0,4.1047516E0,1.0684895E1,5.2166376E0,0E0,0E0,0E0,0E0,0E0,0E0,0E0,0E0,0E0,0E0,0E0,0E0,0E0,0E0],"parents":[2147483647,0,0,1,1,2,2,3,3,4,4,5,5,6,6,7,7,8,8,9,9,10,10,12,12,13,13,14,14],"right_children":[2,4,6,8,10,12,14,16,18,20,22,-1,24,26,28,-1,-1,-1,-1,-1,-1,-1,-1,-1,-1,-1,-1,-1,-1],"split_conditions":[2.5145358E-1,-5.395637E-1,-9.49363E-2,-3.5938865E-1,2.9352582E-1,-1.3010265E0,2.198069E0,-4.6177572E-1,2.1921903E-1,4.091339E-2,2.3726845E0,4.162303E-3,-1.1559551E0,1.9396161E0,2.22267E0,2.1249251E-3,-4.3092067E-3,7.3180925E-3,3.090992E-3,-1.2558578E-4,-4.595767E-3,4.612201E-3,-7.7517033E-3,-8.677143E-3,-4.1854423E-3,-1.4063733E-3,7.6846704E-3,-1.2322211E-2,-2.9085958E-3],"split_indices":[19,19,16,9,1,4,11,9,15,12,3,0,4,3,10,0,0,0,0,0,0,0,0,0,0,0,0,0,0],"split_type":[0,0,0,0,0,0,0,0,0,0,0,0,0,0,0,0,0,0,0,0,0,0,0,0,0,0,0,0,0],"sum_hessian":[1.00336053E3,7.0627997E2,2.9708057E2,3.063323E2,3.9994763E2,1.9175317E2,1.0532739E2,1.5279651E2,1.5353581E2,2.9497415E2,1.04973495E2,7.2045116E0,1.8454866E2,7.908901E1,2.6238379E1,1.2820218E2,2.4594324E1,8.8886505E1,6.464931E1,2.3929475E2,5.5679386E1,9.5556435E1,9.417058E0,2.3775269E1,1.6077339E2,6.394428E1,1.5144734E1,8.552605E0,1.7685774E1],"tree_param":{"num_deleted":"0","num_feature":"25","num_nodes":"29","size_leaf_vector":"1"}},{"base_weights":[-1.3777021E-3,1.7963654E-1,-3.943332E-1,-2.3899364E-1,2.8541568E-1,-5.1654595E-1,-1.1570625E-1,-1.098118E-1,-6.964046E-1,-3.607863E-1,3.4115773E-1,-6.354032E-1,-3.5032403E-1,-2.6621507E-2,-8.4452685E-3,-2.0740158E-3,1.4133553E-2,-1.07615115E-2,-3.0952532E-4,4.4634757E-3,-5.0183493E-3,1.4698664E-2,3.2055622E-3,-5.79606E-3,-1.1325531E-2,3.727119E-3,-4.359811E-3,-7.2780154E-3,4.1012067E-4],"categories":[],"categories_nodes":[],"categories_segments":[],"categories_sizes":[],"default_left":[0,0,0,0,0,0,0,0,0,0,0,0,0,0,0,0,0,0,0,0,0,0,0,0,0,0,0,0,0],"id":32,"left_children":[1,3,5,7,9,11,13,15,17,19,21,23,25,27,-1,-1,-1,-1,-1,-1,-1,-1,-1,-1,-1,-1,-1,-1,-1],"loss_changes":[7.271364E1,3.1060091E1,1.0918194E1,8.297397E0,2.0264168E1,4.199093E0,6.443111E0,1.6895908E1,7.8060493E0,5.334386E0,1.1510345E1,2.9293823E0,6.079606E0,4.2869916E0,0E0,0E0,0E0,0E0,0E0,0E0,0E0,0E0,0E0,0E0,0E0,0E0,0E0,0E0,0E0],"parents":[2147483647,0,0,1,1,2,2,3,3,4,4,5,5,6,6,7,7,8,8,9,9,10,10,11,11,12,12,13,13],"right_children":[2,4,6,8,10,12,14,16,18,20,22,24,26,28,-1,-1,-1,-1,-1,-1,-1,-1,-1,-1,-1,-1,-1,-1,-1],"split_conditions":[2.5145358E-1,-7.881237E-1,-4.394508E-2,-5.409402E-1,-1.0317416E0,1.1688181E0,2.3213227E0,-5.8851725E-1,-1.9562852E-1,-1.3177552E0,-9.495142E-1,-8.734406E-2,-1.0901308E0,-3.7943953E-1,-8.4452685E-3,-2.0740158E-3,1.4133553E-2,-1.07615115E-2,-3.0952532E-4,4.4634757E-3,-5.0183493E-3,1.4698664E-2,3.2055622E-3,-5.79606E-3,-1.1325531E-2,3.727119E-3,-4.359811E-3,-7.2780154E-3,4.1012067E-4],"split_indices":[19,0,13,7,11,19,14,13,17,17,7,4,17,0,0,0,0,0,0,0,0,0,0,0,0,0,0,0,0],"split_type":[0,0,0,0,0,0,0,0,0,0,0,0,0,0,0,0,0,0,0,0,0,0,0,0,0,0,0,0,0],"sum_hessian":[1.0202602E3,6.9886993E2,3.213903E2,1.4071574E2,5.581542E2,2.2280748E2,9.858281E1,1.1069372E2,3.0022015E1,4.388898E1,5.142652E2,1.2826721E2,9.454027E1,8.876898E1,9.813827E0,1.048404E2,5.853322E0,1.8721334E1,1.1300681E1,6.2068043E0,3.768218E1,7.9572744E0,5.0630792E2,1.17271225E2,1.0995985E1,9.658781E0,8.4881485E1,6.9504437E0,8.1818535E1],"tree_param":{"num_deleted":"0","num_feature":"25","num_nodes":"29","size_leaf_vector":"1"}},{"base_weights":[-1.31911235E-2,3.0034333E-1,-2.2839327E-1,1.3729246E-1,4.6738923E-1,-3.5721067E-1,2.3305476E-1,7.142463E-1,2.9693345E-2,1.838146E-1,6.6151905E-1,-2.1103242E-1,-5.194663E-1,4.7090232E-2,7.03912E-1,4.2821593E-3,1.4507282E-2,3.0548854E-3,-3.4244368E-3,2.7262291E-3,-8.397903E-3,1.23927435E-2,5.465478E-3,-7.16318E-3,-1.2759082E-3,-6.414768E-3,-3.745259E-3,4.011532E-3,-1.6451187E-3,9.975685E-3,-1.8191873E-3],"categories":[],"categories_nodes":[],"categories_segments":[],"categories_sizes":[],"default_left":[0,0,0,0,0,0,0,0,0,0,0,0,0,0,0,0,0,0,0,0,0,0,0,0,0,0,0,0,0,0,0],"id":33,"left_children":[1,3,5,7,9,11,13,15,17,19,21,23,25,27,29,-1,-1,-1,-1,-1,-1,-1,-1,-1,-1,-1,-1,-1,-1,-1,-1],"loss_changes":[6.793289E1,1.1097614E1,3.5569992E1,1.2940855E1,1.0998875E1,1.0969208E1,1.1427998E1,6.2831726E0,1.8272957E1,7.817295E0,7.262459E0,1.0339826E1,3.6625328E0,7.1762133E0,9.802925E0,0E0,0E0,0E0,0E0,0E0,0E0,0E0,0E0,0E0,0E0,0E0,0E0,0E0,0E0,0E0,0E0],"parents":[2147483647,0,0,1,1,2,2,3,3,4,4,5,5,6,6,7,7,8,8,9,9,10,10,11,11,12,12,13,13,14,14],"right_children":[2,4,6,8,10,12,14,16,18,20,22,24,26,28,30,-1,-1,-1,-1,-1,-1,-1,-1,-1,-1,-1,-1,-1,-1,-1,-1],"split_conditions":[-3.571377E-1,3.955031E-1,2.9676872E-1,-7.4587435E-1,-3.6340255E-1,4.007512E-1,1.6942725E-1,-7.812964E-1,-6.421304E-1,-4.6177572E-1,6.424586E-1,-1.182328E0,1.1938729E0,1.8938953E0,2.2743993E0,4.2821593E-3,1.4507282E-2,3.0548854E-3,-3.4244368E-3,2.7262291E-3,-8.397903E-3,1.23927435E-2,5.465478E-3,-7.16318E-3,-1.2759082E-3,-6.414768E-3,-3.745259E-3,4.011532E-3,-1.6451187E-3,9.975685E-3,-1.8191873E-3],"split_indices":[19,23,6,20,2,19,23,10,19,9,23,20,19,5,7,0,0,0,0,0,0,0,0,0,0,0,0,0,0,0,0],"split_type":[0,0,0,0,0,0,0,0,0,0,0,0,0,0,0,0,0,0,0,0,0,0,0,0,0,0,0,0,0,0,0],"sum_hessian":[1.00479504E3,4.088026E2,5.9599243E2,2.0779707E2,2.0100555E2,4.6610178E2,1.2989064E2,3.1775679E1,1.760214E2,8.247593E1,1.1852962E2,2.4640909E2,2.1969267E2,9.390356E1,3.598709E1,2.4026031E1,7.7496476E0,1.01199974E2,7.482142E1,7.656664E1,5.909285E0,1.804925E1,1.0048037E2,3.3849113E1,2.1255998E2,1.1742157E2,1.022711E2,3.4792038E1,5.9111523E1,2.6932663E1,9.054425E0],"tree_param":{"num_deleted":"0","num_feature":"25","num_nodes":"31","size_leaf_vector":"1"}},{"base_weights":[2.4148375E-2,1.8028836E-1,-3.3396694E-1,-4.5315155E-1,2.4701197E-1,-5.459455E-1,-1.6334623E-1,-5.4777074E-1,5.723072E-3,-2.8263065E-1,3.0779707E-1,-7.4105996E-1,-2.8076908E-1,-3.710261E-1,9.6735924E-2,3.8681462E-4,-6.8808543E-3,4.7955913E-3,-4.034513E-3,8.2209177E-4,4.7508837E-3,-1.053783E-2,-4.4060717E-3,4.73182E-3,-4.4828067E-3,-2.875998E-3,-1.0011888E-2,7.815209E-3,-3.706221E-4],"categories":[],"categories_nodes":[],"categories_segments":[],"categories_sizes":[],"default_left":[0,0,0,0,0,0,0,0,0,0,0,0,0,0,0,0,0,0,0,0,0,0,0,0,0,0,0,0,0],"id":34,"left_children":[1,3,5,7,9,11,13,15,-1,17,19,21,23,25,27,-1,-1,-1,-1,-1,-1,-1,-1,-1,-1,-1,-1,-1,-1],"loss_changes":[5.645616E1,2.9824581E1,1.0999168E1,6.848029E0,2.0583702E1,6.8436813E0,9.287752E0,5.1423454E0,0E0,6.2773404E0,2.1532078E1,6.855915E0,7.7120004E0,4.7297907E0,7.069474E0,0E0,0E0,0E0,0E0,0E0,0E0,0E0,0E0,0E0,0E0,0E0,0E0,0E0,0E0],"parents":[2147483647,0,0,1,1,2,2,3,3,4,4,5,5,6,6,7,7,9,9,10,10,11,11,12,12,13,13,14,14],"right_children":[2,4,6,8,10,12,14,16,-1,18,20,22,24,26,28,-1,-1,-1,-1,-1,-1,-1,-1,-1,-1,-1,-1,-1,-1],"split_conditions":[2.5145358E-1,-9.5444953E-1,-7.2010064E-1,1.4708179E-1,-1.0073489E0,1.1688181E0,-2.3010236E-1,-8.073183E-1,5.723072E-3,-4.769292E-1,-5.7369515E-2,-3.184944E-2,1.352811E0,-2.5821242E-1,-1.2801027E-1,3.8681462E-4,-6.8808543E-3,4.7955913E-3,-4.034513E-3,8.2209177E-4,4.7508837E-3,-1.053783E-2,-4.4060717E-3,4.73182E-3,-4.4828067E-3,-2.875998E-3,-1.0011888E-2,7.815209E-3,-3.706221E-4],"split_indices":[19,0,23,19,9,19,5,17,0,19,23,0,19,5,20,0,0,0,0,0,0,0,0,0,0,0,0,0,0],"split_type":[0,0,0,0,0,0,0,0,0,0,0,0,0,0,0,0,0,0,0,0,0,0,0,0,0,0,0,0,0],"sum_hessian":[1.0075812E3,7.0200165E2,3.055795E2,6.634688E1,6.356548E2,1.3529263E2,1.7028687E2,6.116867E1,5.17821E0,6.506554E1,5.7058923E2,7.690906E1,5.8383583E1,9.444467E1,7.584219E1,1.1949494E1,4.9219173E1,8.496529E0,5.6569008E1,2.4359679E2,3.269925E2,3.6456448E1,4.045261E1,1.0281758E1,4.810182E1,8.4689186E1,9.7554865E0,1.16052E1,6.423699E1],"tree_param":{"num_deleted":"0","num_feature":"25","num_nodes":"29","size_leaf_vector":"1"}},{"base_weights":[1.2022124E-2,8.2552075E-2,-6.926598E-1,-2.2777353E-1,1.8655513E-1,-7.499735E-1,-6.992946E-4,7.919843E-3,-2.5865975E-1,-7.1795094E-1,2.3586117E-1,-1.366499E-3,-8.0744034E-1,-2.0447318E-3,-7.885873E-3,-2.3697475E-3,-1.2824111E-2,2.6819583E-3,-6.1563496E-3,-1.4402604E-2,-7.0966715E-3],"categories":[],"categories_nodes":[],"categories_segments":[],"categories_sizes":[],"default_left":[0,0,0,0,0,0,0,0,0,0,0,0,0,0,0,0,0,0,0,0,0],"id":35,"left_children":[1,3,5,7,9,11,-1,-1,13,15,17,-1,19,-1,-1,-1,-1,-1,-1,-1,-1],"loss_changes":[4.9964466E1,2.9531397E1,3.2120438E0,7.442706E0,3.0713469E1,2.8381119E0,0E0,0E0,6.2650833E0,9.37516E0,1.8067837E1,0E0,3.6977654E0,0E0,0E0,0E0,0E0,0E0,0E0,0E0,0E0],"parents":[2147483647,0,0,1,1,2,2,3,3,4,4,5,5,8,8,9,9,10,10,12,12],"right_children":[2,4,6,8,10,12,-1,-1,14,16,18,-1,20,-1,-1,-1,-1,-1,-1,-1,-1],"split_conditions":[1.5275385E0,-7.790641E-1,4.9392205E-2,-1.2477976E0,-1.2581496E0,-1.2016693E0,-6.992946E-4,7.919843E-3,-8.0507857E-1,-1.2814072E0,1.825709E0,-1.366499E-3,-1.1072861E0,-2.0447318E-3,-7.885873E-3,-2.3697475E-3,-1.2824111E-2,2.6819583E-3,-6.1563496E-3,-1.4402604E-2,-7.0966715E-3],"split_indices":[0,0,1,17,17,17,0,0,0,17,19,0,13,0,0,0,0,0,0,0,0],"split_type":[0,0,0,0,0,0,0,0,0,0,0,0,0,0,0,0,0,0,0,0,0],"sum_hessian":[1.0031469E3,9.1268164E2,9.0465294E1,2.2879883E2,6.838828E2,8.2653824E1,7.811469E0,6.001684E0,2.2279715E2,3.4651375E1,6.4923145E2,7.370367E0,7.5283455E1,2.033862E2,1.9410952E1,1.9475845E1,1.5175531E1,6.2613947E2,2.3091959E1,8.237439E0,6.704602E1],"tree_param":{"num_deleted":"0","num_feature":"25","num_nodes":"21","size_leaf_vector":"1"}},{"base_weights":[-1.6942034E-2,-3.0409214E-1,1.5267165E-1,-4.295082E-1,-4.747722E-2,-3.9296532E-1,2.114501E-1,-1.0351938E0,-3.809745E-1,-2.6871696E-1,2.8179124E-1,-2.9484499E-1,-1.1868874E-2,-2.377934E-1,2.753203E-1,-3.9513228E-3,-1.4368832E-2,-5.6817024E-3,-2.491907E-3,3.1831168E-4,-6.0559777E-3,-9.3549315E-4,8.871437E-3,-4.6475125E-3,2.9796713E-3,-9.881686E-4,-1.0877496E-2,3.0198852E-3,-1.0112164E-2],"categories":[],"categories_nodes":[],"categories_segments":[],"categories_sizes":[],"default_left":[0,0,0,0,0,0,0,0,0,0,0,0,0,0,0,0,0,0,0,0,0,0,0,0,0,0,0,0,0],"id":36,"left_children":[1,3,5,7,9,11,13,15,17,19,21,23,-1,25,27,-1,-1,-1,-1,-1,-1,-1,-1,-1,-1,-1,-1,-1,-1],"loss_changes":[4.8952007E1,1.1990681E1,2.0349903E1,6.9711723E0,9.082755E0,4.4645195E0,1.6452734E1,4.0616283E0,5.620098E0,7.558747E0,1.1484101E1,5.8127565E0,0E0,8.353376E0,1.7477074E1,0E0,0E0,0E0,0E0,0E0,0E0,0E0,0E0,0E0,0E0,0E0,0E0,0E0,0E0],"parents":[2147483647,0,0,1,1,2,2,3,3,4,4,5,5,6,6,7,7,8,8,9,9,10,10,11,11,13,13,14,14],"right_children":[2,4,6,8,10,12,14,16,18,20,22,24,-1,26,28,-1,-1,-1,-1,-1,-1,-1,-1,-1,-1,-1,-1,-1,-1],"split_conditions":[-2.4794242E-1,-2.3215777E-1,-9.494356E-1,-1.0653797E0,-7.936552E-1,-1.5348838E-1,-9.9141556E-1,-7.137577E-1,-9.931368E-1,-1.2669001E0,-6.4657134E-1,-1.9347315E-1,-1.1868874E-2,-9.6994644E-1,2.376576E0,-3.9513228E-3,-1.4368832E-2,-5.6817024E-3,-2.491907E-3,3.1831168E-4,-6.0559777E-3,-9.3549315E-4,8.871437E-3,-4.6475125E-3,2.9796713E-3,-9.881686E-4,-1.0877496E-2,3.0198852E-3,-1.0112164E-2],"split_indices":[24,3,0,0,23,7,15,24,24,23,24,1,0,22,11,0,0,0,0,0,0,0,0,0,0,0,0,0,0],"split_type":[0,0,0,0,0,0,0,0,0,0,0,0,0,0,0,0,0,0,0,0,0,0,0,0,0,0,0,0,0],"sum_hessian":[1.00312665E3,3.7220447E2,6.309222E2,2.4956178E2,1.226427E2,6.0803272E1,5.701189E2,1.7005754E1,2.3255603E2,7.346471E1,4.9177994E1,5.533574E1,5.467532E0,7.062699E1,4.994919E2,7.3221455E0,9.683608E0,9.471057E1,1.3784546E2,3.930462E1,3.4160088E1,3.0877983E1,1.8300009E1,4.3176823E1,1.21589155E1,6.166104E1,8.965951E0,4.9009808E2,9.393821E0],"tree_param":{"num_deleted":"0","num_feature":"25","num_nodes":"29","size_leaf_vector":"1"}},{"base_weights":[-1.4128668E-3,3.356575E-1,-2.293107E-1,-1.5145065E-1,4.3316597E-1,-3.637664E-1,2.662286E-1,5.675817E-2,-1.0512254E0,1.5474299E-1,6.392911E-1,-2.1921225E-1,-5.599909E-1,9.0017274E-2,7.7061516E-1,3.7523524E-3,-7.4202553E-3,-1.2834772E-2,-6.6147083E-3,8.518747E-3,8.4617524E-4,7.949927E-3,3.2252325E-3,-4.049268E-3,4.2907443E-4,-7.534417E-3,-3.8525914E-3,1.6951734E-3,-9.069996E-3,4.970265E-3,1.1602023E-2],"categories":[],"categories_nodes":[],"categories_segments":[],"categories_sizes":[],"default_left":[0,0,0,0,0,0,0,0,0,0,0,0,0,0,0,0,0,0,0,0,0,0,0,0,0,0,0,0,0,0,0],"id":37,"left_children":[1,3,5,7,9,11,13,15,17,19,21,23,25,27,29,-1,-1,-1,-1,-1,-1,-1,-1,-1,-1,-1,-1,-1,-1,-1,-1],"loss_changes":[7.784921E1,1.9482471E1,4.038196E1,1.2972139E1,1.9463902E1,1.3379234E1,1.1450981E1,1.4758959E1,3.281002E-1,7.0813417E0,9.388313E0,1.343997E1,6.51318E0,7.857474E0,2.9862118E0,0E0,0E0,0E0,0E0,0E0,0E0,0E0,0E0,0E0,0E0,0E0,0E0,0E0,0E0,0E0,0E0],"parents":[2147483647,0,0,1,1,2,2,3,3,4,4,5,5,6,6,7,7,8,8,9,9,10,10,11,11,12,12,13,13,14,14],"right_children":[2,4,6,8,10,12,14,16,18,20,22,24,26,28,30,-1,-1,-1,-1,-1,-1,-1,-1,-1,-1,-1,-1,-1,-1,-1,-1],"split_conditions":[-3.571377E-1,-7.790641E-1,3.07506E-1,-5.238223E-1,1.6942725E-1,5.6360364E-1,2.1782666E-1,9.9020696E-1,-3.3421353E-1,-7.812615E-1,3.3636284E-3,1.3326958E-1,1.1938729E0,2.3608396E0,2.1689138E0,3.7523524E-3,-7.4202553E-3,-1.2834772E-2,-6.6147083E-3,8.518747E-3,8.4617524E-4,7.949927E-3,3.2252325E-3,-4.049268E-3,4.2907443E-4,-7.534417E-3,-3.8525914E-3,1.6951734E-3,-9.069996E-3,4.970265E-3,1.1602023E-2],"split_indices":[19,0,3,3,23,19,23,23,2,21,0,0,19,3,20,0,0,0,0,0,0,0,0,0,0,0,0,0,0,0,0],"split_type":[0,0,0,0,0,0,0,0,0,0,0,0,0,0,0,0,0,0,0,0,0,0,0,0,0,0,0,0,0,0,0],"sum_hessian":[1.01142725E3,4.078005E2,6.036267E2,6.7924965E1,3.3987555E2,4.750078E2,1.2861891E2,5.5921574E1,1.200339E1,1.4532666E2,1.945489E2,2.7473438E2,2.0027344E2,9.6191986E1,3.2426933E1,4.0360126E1,1.5561444E1,6.0845904E0,5.9188E0,1.22636175E1,1.3306303E2,1.294234E2,6.5125496E1,1.6048456E2,1.1424981E2,9.34738E1,1.06799644E2,8.985695E1,6.335034E0,2.0386345E1,1.2040589E1],"tree_param":{"num_deleted":"0","num_feature":"25","num_nodes":"31","size_leaf_vector":"1"}},{"base_weights":[-1.8446073E-2,2.9252568E-1,-2.3450379E-1,-1.9875288E-1,3.921949E-1,-8.751776E-2,-4.591189E-1,6.3676336E-3,-1.1478065E0,1.15470774E-1,6.78652E-1,-3.733885E-1,9.3789525E-2,-6.051538E-1,-2.662725E-1,2.791399E-3,-6.2202457E-3,-1.44376205E-2,-7.571119E-3,3.0376837E-3,-1.4908647E-3,3.3817317E-3,8.046298E-3,6.6417167E-3,-4.4646207E-3,-1.3386572E-3,2.9444194E-3,-9.166868E-3,-3.5359943E-3,-2.093753E-3,-1.0075698E-2],"categories":[],"categories_nodes":[],"categories_segments":[],"categories_sizes":[],"default_left":[0,0,0,0,0,0,0,0,0,0,0,0,0,0,0,0,0,0,0,0,0,0,0,0,0,0,0,0,0,0,0],"id":38,"left_children":[1,3,5,7,9,11,13,15,17,19,21,23,25,27,29,-1,-1,-1,-1,-1,-1,-1,-1,-1,-1,-1,-1,-1,-1,-1,-1],"loss_changes":[6.809439E1,2.0423622E1,1.9701637E1,1.3779037E1,2.7330494E1,1.883257E1,6.493244E0,1.0315101E1,3.612995E-1,8.866449E0,7.0064087E0,1.0983179E1,1.0213301E1,1.0151802E1,4.1590376E0,0E0,0E0,0E0,0E0,0E0,0E0,0E0,0E0,0E0,0E0,0E0,0E0,0E0,0E0,0E0,0E0],"parents":[2147483647,0,0,1,1,2,2,3,3,4,4,5,5,6,6,7,7,8,8,9,9,10,10,11,11,12,12,13,13,14,14],"right_children":[2,4,6,8,10,12,14,16,18,20,22,24,26,28,30,-1,-1,-1,-1,-1,-1,-1,-1,-1,-1,-1,-1,-1,-1,-1,-1],"split_conditions":[-3.571377E-1,-7.790641E-1,5.870886E-1,-5.2183425E-1,3.955031E-1,-4.5113534E-1,-4.1307336E-1,9.9020696E-1,-3.489739E-1,-6.421304E-1,-9.263381E-1,-1.5502193E0,-3.871777E-1,1.1688181E0,2.1765075E0,2.791399E-3,-6.2202457E-3,-1.44376205E-2,-7.571119E-3,3.0376837E-3,-1.4908647E-3,3.3817317E-3,8.046298E-3,6.6417167E-3,-4.4646207E-3,-1.3386572E-3,2.9444194E-3,-9.166868E-3,-3.5359943E-3,-2.093753E-3,-1.0075698E-2],"split_indices":[19,0,19,1,23,0,23,23,20,19,19,23,23,19,5,0,0,0,0,0,0,0,0,0,0,0,0,0,0,0,0],"split_type":[0,0,0,0,0,0,0,0,0,0,0,0,0,0,0,0,0,0,0,0,0,0,0,0,0,0,0,0,0,0,0],"sum_hessian":[1.0114717E3,4.1451154E2,5.9696014E2,6.9743835E1,3.447677E2,3.6167383E2,2.3528633E2,5.816568E1,1.1578153E1,1.7607668E2,1.6869102E2,1.3995097E2,2.2172285E2,1.3267717E2,1.0260915E2,4.0947144E1,1.7218536E1,5.054181E0,6.523972E0,1.027772E2,7.329948E1,4.6554123E1,1.2213691E2,8.675782E0,1.3127519E2,1.0402805E2,1.1769481E2,5.809114E1,7.458604E1,9.648596E1,6.1231923E0],"tree_param":{"num_deleted":"0","num_feature":"25","num_nodes":"31","size_leaf_vector":"1"}},{"base_weights":[1.5602714E-2,1.9145317E-1,-3.7088177E-1,-2.3533109E-1,3.0548567E-1,-4.459789E-1,-6.3442074E-2,1.4672953E-2,-3.2531568E-1,8.895822E-2,5.29123E-1,-6.0849214E-1,-3.0557433E-1,1.0321642E-1,-1.1925755E-2,8.386413E-3,-3.8808396E-3,9.994593E-3,3.1540467E-4,1.0089596E-3,6.5313047E-3,-8.252586E-3,-2.6296412E-3,-5.482331E-4,-5.2982215E-3,-6.9777056E-4,9.659418E-3],"categories":[],"categories_nodes":[],"categories_segments":[],"categories_sizes":[],"default_left":[0,0,0,0,0,0,0,0,0,0,0,0,0,0,0,0,0,0,0,0,0,0,0,0,0,0,0],"id":39,"left_children":[1,3,5,7,9,11,13,-1,15,17,19,21,23,25,-1,-1,-1,-1,-1,-1,-1,-1,-1,-1,-1,-1,-1],"loss_changes":[6.797883E1,3.3524902E1,7.193569E0,2.2769566E1,2.62412E1,5.5464516E0,1.1897979E1,0E0,1.0481893E1,1.445116E1,1.4104942E1,8.429058E0,7.662712E0,8.342357E0,0E0,0E0,0E0,0E0,0E0,0E0,0E0,0E0,0E0,0E0,0E0,0E0,0E0],"parents":[2147483647,0,0,1,1,2,2,3,3,4,4,5,5,6,6,8,8,9,9,10,10,11,11,12,12,13,13],"right_children":[2,4,6,8,10,12,14,-1,16,18,20,22,24,26,-1,-1,-1,-1,-1,-1,-1,-1,-1,-1,-1,-1,-1],"split_conditions":[2.5145358E-1,-7.844819E-1,2.9631355E-1,-1.3974689E0,1.4763443E-1,-7.2010064E-1,2.2954981E0,1.4672953E-2,-1.2246084E0,-1.5502193E0,-5.2852136E-1,1.1688181E0,5.2773617E-2,2.1925135E0,-1.1925755E-2,8.386413E-3,-3.8808396E-3,9.994593E-3,3.1540467E-4,1.0089596E-3,6.5313047E-3,-8.252586E-3,-2.6296412E-3,-5.482331E-4,-5.2982215E-3,-6.9777056E-4,9.659418E-3],"split_indices":[19,0,3,23,23,23,20,0,13,23,3,19,23,20,0,0,0,0,0,0,0,0,0,0,0,0,0],"split_type":[0,0,0,0,0,0,0,0,0,0,0,0,0,0,0,0,0,0,0,0,0,0,0,0,0,0,0],"sum_hessian":[9.981813E2,6.86382E2,3.1179926E2,1.4450099E2,5.4188104E2,2.5022668E2,6.1572563E1,6.4852624E0,1.3801573E2,2.7602716E2,2.6585388E2,1.144366E2,1.3579008E2,5.444513E1,7.127435E0,6.429424E0,1.315863E2,1.5400894E1,2.6062625E2,6.0106297E1,2.0574759E2,6.946773E1,4.4968872E1,6.4694275E1,7.109581E1,4.61169E1,8.328228E0],"tree_param":{"num_deleted":"0","num_feature":"25","num_nodes":"27","size_leaf_vector":"1"}},{"base_weights":[3.0096758E-2,1.872629E-1,-3.1271747E-1,-5.1241152E-2,3.7911478E-1,-4.1737646E-1,1.23250686E-1,-5.6073964E-1,3.9507452E-2,1.0582561E-1,5.1268107E-1,-3.8935184E-1,-1.1472904E-2,6.6034E-1,-3.6212808E-1,-7.8082983E-3,-1.8613245E-3,6.547246E-4,-8.74791E-3,4.4410556E-4,9.568932E-3,5.505846E-3,-7.426207E-3,-4.3999404E-3,5.71218E-4,3.4665307E-3,1.2334125E-2,4.314493E-3,-6.9902823E-3],"categories":[],"categories_nodes":[],"categories_segments":[],"categories_sizes":[],"default_left":[0,0,0,0,0,0,0,0,0,0,0,0,0,0,0,0,0,0,0,0,0,0,0,0,0,0,0,0,0],"id":40,"left_children":[1,3,5,7,9,11,13,15,17,19,21,23,-1,25,27,-1,-1,-1,-1,-1,-1,-1,-1,-1,-1,-1,-1,-1,-1],"loss_changes":[5.425437E1,3.1606495E1,1.4495838E1,1.4291695E1,1.3914883E1,4.779953E0,1.6416607E1,3.707015E0,6.298392E0,6.5900536E0,1.262748E1,5.6229973E0,0E0,4.9317656E0,9.189331E0,0E0,0E0,0E0,0E0,0E0,0E0,0E0,0E0,0E0,0E0,0E0,0E0,0E0,0E0],"parents":[2147483647,0,0,1,1,2,2,3,3,4,4,5,5,6,6,7,7,8,8,9,9,10,10,11,11,13,13,14,14],"right_children":[2,4,6,8,10,12,14,16,18,20,22,24,-1,26,28,-1,-1,-1,-1,-1,-1,-1,-1,-1,-1,-1,-1,-1,-1],"split_conditions":[2.5145358E-1,-6.5912776E-2,3.029123E-1,-9.5444953E-1,-4.9496928E-1,1.9001058E-1,2.1981246E0,-4.7043707E-2,1.9216148E0,1.3533214E-1,2.3976762E0,-6.301848E-2,-1.1472904E-2,2.0031269E0,6.1371195E-1,-7.8082983E-3,-1.8613245E-3,6.547246E-4,-8.74791E-3,4.4410556E-4,9.568932E-3,5.505846E-3,-7.426207E-3,-4.3999404E-3,5.71218E-4,3.4665307E-3,1.2334125E-2,4.314493E-3,-6.9902823E-3],"split_indices":[19,23,5,0,20,1,15,19,0,19,20,6,0,4,19,0,0,0,0,0,0,0,0,0,0,0,0,0,0],"split_type":[0,0,0,0,0,0,0,0,0,0,0,0,0,0,0,0,0,0,0,0,0,0,0,0,0,0,0,0,0],"sum_hessian":[1.004884E3,6.8931525E2,3.1556876E2,3.076222E2,3.8169302E2,2.5451279E2,6.105597E1,4.572499E1,2.618972E2,1.2589413E2,2.557989E2,2.4657896E2,7.93383E0,2.8812939E1,3.224303E1,2.8119658E1,1.7605333E1,2.5556775E2,6.3294344E0,1.1840213E2,7.4919972E0,2.4884644E2,6.9524746E0,2.2147249E2,2.5106472E1,1.9657675E1,9.155264E0,9.525296E0,2.2717735E1],"tree_param":{"num_deleted":"0","num_feature":"25","num_nodes":"29","size_leaf_vector":"1"}},{"base_weights":[-2.2956317E-2,-2.7884942E-1,1.7047854E-1,-7.178298E-1,-2.156281E-1,-3.693559E-1,2.3630778E-1,1.0419211E-3,-8.6456406E-1,-1.22159995E-1,-6.4963746E-1,6.545816E-1,-5.861353E-1,-1.4688627E-1,3.3055195E-1,-4.104197E-3,-1.0392028E-2,-8.420859E-3,-2.0989905E-4,-5.8895926E-4,-7.966164E-3,9.987075E-3,1.897904E-3,-3.8493096E-3,-1.0584184E-2,-8.8424785E-3,-4.1608635E-4,3.7044904E-3,-9.077344E-3],"categories":[],"categories_nodes":[],"categories_segments":[],"categories_sizes":[],"default_left":[0,0,0,0,0,0,0,0,0,0,0,0,0,0,0,0,0,0,0,0,0,0,0,0,0,0,0,0,0],"id":41,"left_children":[1,3,5,7,9,11,13,-1,15,17,19,21,23,25,27,-1,-1,-1,-1,-1,-1,-1,-1,-1,-1,-1,-1,-1,-1],"loss_changes":[5.0389935E1,1.2006981E1,2.069265E1,6.692375E0,1.5517427E1,1.4459054E1,1.8734509E1,0E0,3.2657166E0,2.3113369E1,5.848383E0,1.6581211E0,4.615608E0,7.9455447E0,2.0868076E1,0E0,0E0,0E0,0E0,0E0,0E0,0E0,0E0,0E0,0E0,0E0,0E0,0E0,0E0],"parents":[2147483647,0,0,1,1,2,2,3,3,4,4,5,5,6,6,8,8,9,9,10,10,11,11,12,12,13,13,14,14],"right_children":[2,4,6,8,10,12,14,-1,16,18,20,22,24,26,28,-1,-1,-1,-1,-1,-1,-1,-1,-1,-1,-1,-1,-1,-1],"split_conditions":[-2.8970677E-1,-1.0151953E0,-1.0449082E0,-1.0786626E0,1.5638353E0,1.4401805E-2,-7.881237E-1,1.0419211E-3,-9.239058E-1,-1.0528958E0,-9.403526E-1,-1.1972938E0,8.931403E-1,-1.9090298E-1,2.3534458E0,-4.104197E-3,-1.0392028E-2,-8.420859E-3,-2.0989905E-4,-5.8895926E-4,-7.966164E-3,9.987075E-3,1.897904E-3,-3.8493096E-3,-1.0584184E-2,-8.8424785E-3,-4.1608635E-4,3.7044904E-3,-9.077344E-3],"split_indices":[23,0,15,0,0,23,0,0,24,8,3,16,23,23,3,0,0,0,0,0,0,0,0,0,0,0,0,0,0],"split_type":[0,0,0,0,0,0,0,0,0,0,0,0,0,0,0,0,0,0,0,0,0,0,0,0,0,0,0,0,0],"sum_hessian":[1.016046E3,4.3721582E2,5.788302E2,5.373687E1,3.8347894E2,6.2411587E1,5.164186E2,8.183255E0,4.5553616E1,3.165815E2,6.689743E1,1.055176E1,5.1859825E1,1.01828476E2,4.1459012E2,1.3582564E1,3.197105E1,3.8104755E1,2.7847678E2,1.3607304E1,5.3290123E1,5.402838E0,5.148921E0,3.7639503E1,1.4220323E1,1.1797801E1,9.003067E1,4.0232812E2,1.2262003E1],"tree_param":{"num_deleted":"0","num_feature":"25","num_nodes":"29","size_leaf_vector":"1"}},{"base_weights":[-1.6306968E-2,-1.6152926E-1,2.814324E-1,-3.168005E-1,-5.4517783E-2,1.4978382E-1,8.263035E-1,-7.841376E-1,-2.6493755E-1,-1.6747084E-1,1.1483462E-1,-4.0084273E-1,2.4903877E-1,1.2261332E-2,5.6051135E-1,8.920906E-4,-1.0196142E-2,5.45508E-3,-3.0815615E-3,-7.337588E-4,-7.5743566E-3,9.54557E-3,-4.0740325E-4,1.997291E-3,-5.694741E-3,3.0072625E-3,-2.1975015E-3,-3.219822E-3,7.844218E-3],"categories":[],"categories_nodes":[],"categories_segments":[],"categories_sizes":[],"default_left":[0,0,0,0,0,0,0,0,0,0,0,0,0,0,0,0,0,0,0,0,0,0,0,0,0,0,0,0,0],"id":42,"left_children":[1,3,5,7,9,11,13,15,17,19,21,23,25,-1,27,-1,-1,-1,-1,-1,-1,-1,-1,-1,-1,-1,-1,-1,-1],"loss_changes":[4.3877934E1,1.1315147E1,2.3742237E1,6.5317135E0,7.7657986E0,1.4811685E1,6.16975E0,5.698101E0,8.987532E0,1.3453045E1,2.1284107E1,4.3162513E0,5.6074514E0,0E0,8.275199E0,0E0,0E0,0E0,0E0,0E0,0E0,0E0,0E0,0E0,0E0,0E0,0E0,0E0,0E0],"parents":[2147483647,0,0,1,1,2,2,3,3,4,4,5,5,6,6,7,7,8,8,9,9,10,10,11,11,12,12,14,14],"right_children":[2,4,6,8,10,12,14,16,18,20,22,24,26,-1,28,-1,-1,-1,-1,-1,-1,-1,-1,-1,-1,-1,-1,-1,-1],"split_conditions":[3.7600103E-1,-7.488085E-1,4.3355036E-1,-1.1689368E0,-1.4188929E-1,-9.517823E-1,1.493742E0,-1.3684857E0,-1.0042276E0,-2.398338E-1,4.4321943E-2,-1.2103467E0,2.0035163E-1,1.2261332E-2,1.6944556E0,8.920906E-4,-1.0196142E-2,5.45508E-3,-3.0815615E-3,-7.337588E-4,-7.5743566E-3,9.54557E-3,-4.0740325E-4,1.997291E-3,-5.694741E-3,3.0072625E-3,-2.1975015E-3,-3.219822E-3,7.844218E-3],"split_indices":[23,23,18,3,5,22,8,21,21,18,11,22,17,0,21,0,0,0,0,0,0,0,0,0,0,0,0,0,0],"split_type":[0,0,0,0,0,0,0,0,0,0,0,0,0,0,0,0,0,0,0,0,0,0,0,0,0,0,0,0,0],"sum_hessian":[1.0127396E3,6.8102655E2,3.3171304E2,2.770593E2,4.0396725E2,2.6818958E2,6.3523495E1,2.6265102E1,2.5079419E2,2.4234283E2,1.6162442E2,4.049593E1,2.2769363E2,2.3923048E1,3.9600445E1,5.709734E0,2.0555368E1,1.2108614E1,2.3868558E2,2.099774E2,3.2365444E1,2.4460758E1,1.3716365E2,8.837438E0,3.1658493E1,2.0540472E2,2.228891E1,7.9255695E0,3.1674877E1],"tree_param":{"num_deleted":"0","num_feature":"25","num_nodes":"29","size_leaf_vector":"1"}},{"base_weights":[-3.0016666E-2,2.751699E-1,-2.382223E-1,1.2199235E-1,4.066089E-1,-3.6033764E-1,2.0241909E-1,4.748657E-1,-3.3479195E-2,6.155454E-1,2.2193687E-1,-2.563119E-1,-4.707219E-1,5.0373286E-1,-1.753721E-1,7.259106E-3,8.2390953E-4,-8.005335E-3,8.692817E-4,6.7403787E-3,-1.0613193E-3,-6.392614E-5,5.8047418E-3,-7.0767053E-3,-1.3373325E-3,1.3284977E-3,-5.298344E-3,2.5452964E-4,6.909935E-3,4.144577E-3,-5.484054E-3],"categories":[],"categories_nodes":[],"categories_segments":[],"categories_sizes":[],"default_left":[0,0,0,0,0,0,0,0,0,0,0,0,0,0,0,0,0,0,0,0,0,0,0,0,0,0,0,0,0,0,0],"id":43,"left_children":[1,3,5,7,9,11,13,15,17,19,21,23,25,27,29,-1,-1,-1,-1,-1,-1,-1,-1,-1,-1,-1,-1,-1,-1,-1,-1],"loss_changes":[6.416097E1,8.196032E0,3.2367462E1,1.0470478E1,8.351471E0,5.279648E0,1.4986193E1,5.689067E0,1.2373198E1,4.404602E0,9.69135E0,1.3422632E1,8.168671E0,6.5262737E0,1.316692E1,0E0,0E0,0E0,0E0,0E0,0E0,0E0,0E0,0E0,0E0,0E0,0E0,0E0,0E0,0E0,0E0],"parents":[2147483647,0,0,1,1,2,2,3,3,4,4,5,5,6,6,7,7,8,8,9,9,10,10,11,11,12,12,13,13,14,14],"right_children":[2,4,6,8,10,12,14,16,18,20,22,24,26,28,30,-1,-1,-1,-1,-1,-1,-1,-1,-1,-1,-1,-1,-1,-1,-1,-1],"split_conditions":[-3.571377E-1,-4.02836E-1,3.225387E-1,-7.360697E-1,6.866888E-2,3.5220906E-1,2.1852324E0,3.4926006E-1,-7.3506457E-1,1.132144E0,9.460438E-1,-1.0551711E0,-1.2303673E0,1.0075347E0,2.668685E-1,7.259106E-3,8.2390953E-4,-8.005335E-3,8.692817E-4,6.7403787E-3,-1.0613193E-3,-6.392614E-5,5.8047418E-3,-7.0767053E-3,-1.3373325E-3,1.3284977E-3,-5.298344E-3,2.5452964E-4,6.909935E-3,4.144577E-3,-5.484054E-3],"split_indices":[19,8,5,20,17,19,17,24,21,24,24,17,11,17,19,0,0,0,0,0,0,0,0,0,0,0,0,0,0,0,0],"split_type":[0,0,0,0,0,0,0,0,0,0,0,0,0,0,0,0,0,0,0,0,0,0,0,0,0,0,0,0,0,0,0],"sum_hessian":[1.00771643E3,4.0854785E2,5.9916864E2,1.8956224E2,2.1898561E2,4.6929477E2,1.2987384E2,5.7347164E1,1.3221507E2,1.0164833E2,1.1733727E2,2.4331628E2,2.2597849E2,7.206435E1,5.7809505E1,3.445719E1,2.2889975E1,1.7172058E1,1.15043015E2,9.40884E1,7.5599265E0,7.228546E1,4.505181E1,5.0946835E1,1.9236945E2,2.0046371E1,2.0593211E2,2.0596085E1,5.1468258E1,2.235359E1,3.5455914E1],"tree_param":{"num_deleted":"0","num_feature":"25","num_nodes":"31","size_leaf_vector":"1"}},{"base_weights":[1.2216048E-2,1.7926952E-1,-3.4641957E-1,-8.708463E-2,3.2593793E-1,-4.3446684E-1,6.700045E-2,1.151172E-2,-1.4173652E-1,8.137371E-2,5.00264E-1,5.0490084E-3,-4.636918E-1,1.3671746E-2,-1.5320322E-1,9.659494E-3,-1.754194E-3,1.4304791E-3,-1.0642254E-2,5.4921894E-3,-8.79106E-3,-6.315308E-3,-3.3670827E-3,-9.8453015E-3,6.23836E-5],"categories":[],"categories_nodes":[],"categories_segments":[],"categories_sizes":[],"default_left":[0,0,0,0,0,0,0,0,0,0,0,0,0,0,0,0,0,0,0,0,0,0,0,0,0],"id":44,"left_children":[1,3,5,7,9,11,13,-1,15,17,19,-1,21,-1,23,-1,-1,-1,-1,-1,-1,-1,-1,-1,-1],"loss_changes":[5.985281E1,2.6651901E1,1.1585587E1,1.6594086E1,1.8705723E1,7.4232826E0,1.6416935E1,0E0,8.878571E0,1.3165516E1,1.7805084E1,0E0,5.211281E0,0E0,6.542051E0,0E0,0E0,0E0,0E0,0E0,0E0,0E0,0E0,0E0,0E0],"parents":[2147483647,0,0,1,1,2,2,3,3,4,4,5,5,6,6,8,8,9,9,10,10,12,12,14,14],"right_children":[2,4,6,8,10,12,14,-1,16,18,20,-1,22,-1,24,-1,-1,-1,-1,-1,-1,-1,-1,-1,-1],"split_conditions":[2.5145358E-1,-2.8970677E-1,1.0089843E0,-1.8229941E0,-3.7852737E-1,-1.3694079E0,1.9672958E0,1.151172E-2,-9.7331756E-1,-4.6568152E-1,2.3726845E0,5.0490084E-3,-7.2010064E-1,1.3671746E-2,1.9396161E0,9.659494E-3,-1.754194E-3,1.4304791E-3,-1.0642254E-2,5.4921894E-3,-8.79106E-3,-6.315308E-3,-3.3670827E-3,-9.8453015E-3,6.23836E-5],"split_indices":[19,23,15,23,20,20,11,0,19,12,3,0,23,0,3,0,0,0,0,0,0,0,0,0,0],"split_type":[0,0,0,0,0,0,0,0,0,0,0,0,0,0,0,0,0,0,0,0,0,0,0,0,0],"sum_hessian":[9.969867E2,6.805055E2,3.1648123E2,2.4179851E2,4.3870697E2,2.608717E2,5.5609512E1,9.372842E0,2.3242566E2,1.8318343E2,2.5552356E2,7.380082E0,2.5349162E2,7.299796E0,4.8309715E1,6.042304E0,2.2638336E2,1.7465584E2,8.527598E0,2.4734685E2,8.176708E0,1.0747047E2,1.4602116E2,6.9415693E0,4.136815E1],"tree_param":{"num_deleted":"0","num_feature":"25","num_nodes":"25","size_leaf_vector":"1"}},{"base_weights":[2.9170837E-2,2.7896628E-1,-1.4739014E-1,-1.952359E-1,3.6483696E-1,-2.9829755E-1,8.9318514E-2,-3.53542E-2,-1.08566405E-2,1.0783649E-1,5.4742175E-1,-2.009137E-1,-4.8079568E-1,-2.8138682E-1,3.7037253E-1,-1.5436934E-3,9.33465E-3,8.724259E-3,1.461998E-4,5.7652136E-3,-5.0077606E-3,-3.6797337E-3,3.1319212E-3,-8.212841E-3,-3.2377003E-3,-2.0970488E-3,-9.161177E-3,4.4342647E-3,-6.944508E-3],"categories":[],"categories_nodes":[],"categories_segments":[],"categories_sizes":[],"default_left":[0,0,0,0,0,0,0,0,0,0,0,0,0,0,0,0,0,0,0,0,0,0,0,0,0,0,0,0,0],"id":45,"left_children":[1,3,5,7,9,11,13,15,-1,17,19,21,23,25,27,-1,-1,-1,-1,-1,-1,-1,-1,-1,-1,-1,-1,-1,-1],"loss_changes":[4.4113373E1,1.6935955E1,2.0963306E1,9.09436E0,1.6411953E1,6.2687244E0,2.3958838E1,6.534185E0,0E0,1.0467156E1,6.5407715E0,2.0320547E1,6.3585567E0,4.3259063E0,1.0471691E1,0E0,0E0,0E0,0E0,0E0,0E0,0E0,0E0,0E0,0E0,0E0,0E0,0E0,0E0],"parents":[2147483647,0,0,1,1,2,2,3,3,4,4,5,5,6,6,7,7,9,9,10,10,11,11,12,12,13,13,14,14],"right_children":[2,4,6,8,10,12,14,16,-1,18,20,22,24,26,28,-1,-1,-1,-1,-1,-1,-1,-1,-1,-1,-1,-1,-1,-1],"split_conditions":[-3.571377E-1,-7.844819E-1,-9.44731E-2,-5.2183425E-1,1.358199E-1,-4.4679776E-1,-6.06082E-1,-4.4560835E-1,-1.08566405E-2,-7.4587435E-1,2.1925135E0,-7.272725E-1,-2.8857282E-1,-6.79129E-1,2.376576E0,-1.5436934E-3,9.33465E-3,8.724259E-3,1.461998E-4,5.7652136E-3,-5.0077606E-3,-3.6797337E-3,3.1319212E-3,-8.212841E-3,-3.2377003E-3,-2.0970488E-3,-9.161177E-3,4.4342647E-3,-6.944508E-3],"split_indices":[19,0,18,1,23,9,23,19,0,20,20,22,15,23,11,0,0,0,0,0,0,0,0,0,0,0,0,0,0],"split_type":[0,0,0,0,0,0,0,0,0,0,0,0,0,0,0,0,0,0,0,0,0,0,0,0,0,0,0,0,0],"sum_hessian":[9.982774E2,4.1316238E2,5.8511505E2,6.3151016E1,3.5001135E2,3.5715808E2,2.2795695E2,5.4419395E1,8.731623E0,1.4604033E2,2.0397104E2,2.3425621E2,1.2290186E2,9.829991E1,1.2965704E2,4.92143E1,5.205096E0,1.4961612E1,1.310787E2,1.9889926E2,5.0717745E0,1.7701807E2,5.723813E1,3.745519E1,8.544668E1,8.952049E1,8.779415E0,1.21878914E2,7.7781353E0],"tree_param":{"num_deleted":"0","num_feature":"25","num_nodes":"29","size_leaf_vector":"1"}},{"base_weights":[-7.6067997E-3,-2.7161956E-1,1.4181188E-1,-3.8665006E-1,-2.0193966E-2,-5.282099E-1,1.8477172E-1,-3.4300512E-1,-1.2311694E-2,-1.0160118E-2,3.4921054E-2,-2.6249748E-1,-1.0533126E-2,-3.4048375E-2,2.8280514E-1,7.4696587E-3,-3.7227022E-3,6.1569284E-3,-1.0656244E-3,4.332085E-3,-5.459082E-3,-1.300904E-3,4.436947E-3,4.6689445E-4,3.7949074E-3],"categories":[],"categories_nodes":[],"categories_segments":[],"categories_sizes":[],"default_left":[0,0,0,0,0,0,0,0,0,0,0,0,0,0,0,0,0,0,0,0,0,0,0,0,0],"id":46,"left_children":[1,3,5,7,9,11,13,15,-1,-1,17,19,-1,21,23,-1,-1,-1,-1,-1,-1,-1,-1,-1,-1],"loss_changes":[3.965561E1,1.0499386E1,1.8576256E1,8.763126E0,6.3523927E0,5.1567526E0,1.2967201E1,7.8808155E0,0E0,0E0,9.106354E0,5.5972815E0,0E0,8.673666E0,9.507824E0,0E0,0E0,0E0,0E0,0E0,0E0,0E0,0E0,0E0,0E0],"parents":[2147483647,0,0,1,1,2,2,3,3,4,4,5,5,6,6,7,7,10,10,11,11,13,13,14,14],"right_children":[2,4,6,8,10,12,14,16,-1,-1,18,20,-1,22,24,-1,-1,-1,-1,-1,-1,-1,-1,-1,-1],"split_conditions":[-2.4794242E-1,-2.2712122E-1,-1.176834E0,-2.2793318E-1,-2.1100538E0,7.4415237E-1,-6.5912776E-2,-1.3559725E0,-1.2311694E-2,-1.0160118E-2,-1.3974689E0,-1.2552413E0,-1.0533126E-2,1.1514777E0,-5.484938E-1,7.4696587E-3,-3.7227022E-3,6.1569284E-3,-1.0656244E-3,4.332085E-3,-5.459082E-3,-1.300904E-3,4.436947E-3,4.6689445E-4,3.7949074E-3],"split_indices":[24,3,5,6,23,23,23,4,0,0,23,6,0,1,17,0,0,0,0,0,0,0,0,0,0],"split_type":[0,0,0,0,0,0,0,0,0,0,0,0,0,0,0,0,0,0,0,0,0,0,0,0,0],"sum_hessian":[1.00327515E3,3.622991E2,6.40976E2,2.482045E2,1.1409461E2,3.7940636E1,6.030354E2,2.3734464E2,1.085986E1,5.0692387E0,1.0902537E2,2.618859E1,1.1752049E1,1.8677907E2,4.1625632E2,5.5647016E0,2.3177994E2,2.0700548E1,8.832482E1,7.4274387E0,1.876115E1,1.5612128E2,3.06578E1,1.213618E2,2.948945E2],"tree_param":{"num_deleted":"0","num_feature":"25","num_nodes":"25","size_leaf_vector":"1"}},{"base_weights":[-3.4116145E-2,1.2399522E-1,-3.885452E-1,-2.5424853E-1,2.2729409E-1,-4.8774928E-1,-9.808554E-2,-5.722109E-2,-5.249278E-1,-5.8147615E-1,2.7189896E-1,6.4360816E-3,-5.15968E-1,7.52494E-3,-2.0236674E-1,-1.5030074E-3,8.681251E-3,-7.0658824E-3,4.026783E-3,3.6725556E-3,-8.298767E-3,2.911474E-3,-8.200714E-3,-1.1287063E-2,-4.880954E-3,-7.686211E-3,-3.1852725E-4],"categories":[],"categories_nodes":[],"categories_segments":[],"categories_sizes":[],"default_left":[0,0,0,0,0,0,0,0,0,0,0,0,0,0,0,0,0,0,0,0,0,0,0,0,0,0,0],"id":47,"left_children":[1,3,5,7,9,11,13,15,17,19,21,-1,23,-1,25,-1,-1,-1,-1,-1,-1,-1,-1,-1,-1,-1,-1],